/******************************************************************************
 * @file        aot_conv_4.c
 * @brief       Autogenerated AOT CONV_2D kernel
 * @details     This file was generated by HeliosAOT v0.2.2 on 2025-06-10.
 *   This kernel represents node #4 in the corresponding graph.
 *
 * @date        2025-06-10
 *
 * @copyright
 *   © 2025 Ambiq. All rights reserved.
 *
 *   This generated C module is licensed for use **only** on Ambiq hardware
 *   incorporating Ambiq’s sub-threshold power optimized technology.
 *   Any other use is strictly prohibited.
 *
 *   See “LICENSE.txt” at the root of this distribution for full terms.
 *
 * @note        Do not edit this file—any changes will be overwritten.
 ******************************************************************************/

#include <stdalign.h>
#include "ns_ambiqsuite_harness.h"
#include "arm_nnfunctions.h"
#include "arm_nnsupportfunctions.h"
#include "aot_conv_4.h"

#if defined(ARM_MATH_MVEI)
#define SCRATCH_BUFFER_SIZE 0
#define WEIGHT_SUM_BUFFER_SIZE 256
#elif defined(ARM_MATH_DSP)
#define SCRATCH_BUFFER_SIZE 256
#define WEIGHT_SUM_BUFFER_SIZE 0
#else
#define SCRATCH_BUFFER_SIZE 0
#define WEIGHT_SUM_BUFFER_SIZE 0
#endif

#define HAS_BIAS 1

// Input dimensions: input shape is [1, H_IN, W_IN, C_IN]
static const cmsis_nn_dims conv_4_input_dims = { .n = 1, .h = 25, .w = 5, .c = 64 };

// Filter dimensions: weights shape is [C_OUT, H_FILT, W_FILT, C_IN].
static const cmsis_nn_dims conv_4_filter_dims = { .n =  64, .h = 1, .w = 1, .c = 64 };

// Bias dimensions: bias shape is [1, 1, 1, C_OUT].
static const cmsis_nn_dims conv_4_bias_dims = { .n = 1, .h = 1, .w = 1, .c = 64 };

// Output dimensions: output shape is [1, H_OUT, W_OUT, C_OUT].
static const cmsis_nn_dims conv_4_output_dims = { .n = 1, .h = 25, .w = 5, .c = 64 };

// Quantization parameters (per-channel quantization)
static const int32_t conv_4_multiplier[64] = {
  1352513792, 1489513216, 1379458304, 1477987584, 1639906560, 1084564736, 1893259648, 1414921600, 1590248704, 1261327872, 2121746688, 1291550464, 1193854848, 1700510848, 1354542208, 1237655424, 1859561984, 2134661760, 1759378944, 2015455488, 
  2043579776, 1092662144, 1222915456, 1160175872, 1712718976, 1552760576, 1404169728, 1451816704, 1314090240, 1296517120, 1331039744, 1615117312, 1911710592, 1654589184, 1629185792, 1805117952, 1298266624, 1400135424, 1504218752, 1616550784, 
  1442929536, 1696869504, 1680909952, 1306538240, 1796114176, 1514469120, 1469406976, 1610711808, 1131109504, 1317781120, 1385498496, 1427648384, 1611025664, 1803660544, 1284534784, 1560836992, 1385906560, 1243604224, 1528928512, 1754894336, 
  1454913792, 1612589440, 1349712000, 1345755264
};
static const int32_t conv_4_shift[64] = {
  -7, -7, -7, -7, -7, -6, -7, -7, -7, -7, -7, -7, -7, -7, -6, -7, -7, -8, -7, -8, 
  -7, -7, -7, -6, -7, -7, -7, -7, -7, -7, -7, -7, -7, -7, -7, -7, -7, -7, -7, -7, 
  -7, -7, -7, -7, -7, -7, -7, -7, -7, -7, -7, -7, -7, -7, -7, -7, -7, -7, -7, -7, 
  -7, -7, -7, -7
};

// Offsets and activation parameters.
static const int32_t conv_4_input_zero_point = -128;
static const int32_t conv_4_output_zero_point = -128;

// Weight and bias data.
alignas(16) static NS_PUT_IN_TCM int8_t conv_4_weights[] = {
  -60, 12, -4, -59, 41, -74, -31, 1, -62, -5, -37, 37, -26, 38, 45, -8, -80, 1, -21, 15, 
  84, 26, -28, -13, 46, 6, 41, -42, 61, 31, -127, -125, -42, 56, -38, 45, -3, 60, 51, -30, 
  24, 1, -66, 74, -55, 42, -36, -37, -66, 30, 29, 27, -14, -28, -1, -24, -67, -8, -25, 30, 
  -85, -80, -8, -8, 2, 18, -59, -7, 49, -55, -90, -59, -49, 92, 75, 55, -22, -17, -41, -2, 
  127, -39, 111, 88, 33, 0, -104, 28, 6, 96, 37, -44, 68, -30, 50, -14, 127, -127, 65, -68, 
  -27, -17, -10, 44, 60, 23, 13, 5, 69, 48, 61, -3, -63, -26, 4, 5, 68, -37, -3, 59, 
  10, 87, 28, 99, -19, 5, 62, 46, -58, 27, 96, -83, -41, 49, 7, -85, -127, 68, 105, -35, 
  -22, -53, 42, 20, 93, 26, -7, 21, -7, 79, -22, -6, -7, -26, 19, -65, -1, -80, 42, 10, 
  -55, 43, -8, -31, 126, -78, 50, -93, -6, -29, 79, 21, 4, 1, -15, -8, 32, 125, 78, 83, 
  -18, 1, 16, 50, -39, 42, -45, 26, -12, -7, 58, -32, -72, -10, 35, 28, -3, 76, -24, 61, 
  12, 72, -97, -119, 73, -24, -29, -52, 49, 64, -26, 24, 102, -19, -7, -5, 1, 1, 51, 45, 
  66, 9, 65, -59, -13, -42, -73, -73, 127, 3, 8, 6, 47, 60, -17, 78, 89, -9, 100, -35, 
  -91, 22, 15, -25, -33, 59, -31, -16, 43, 14, 50, 65, -31, 76, 64, 22, 64, 27, -44, -22, 
  -67, 25, 26, 30, 72, -9, 14, 14, -32, -127, -60, 59, -37, -102, -77, 11, 44, -8, 60, -24, 
  52, 25, -53, -8, -24, 62, -94, 41, -10, -9, 42, -8, 60, -2, 49, -24, 52, -8, 27, 42, 
  -22, 30, 41, -58, -76, -12, -51, 5, -28, 20, -61, -41, -45, 54, -52, 4, -44, -68, -26, 61, 
  -8, -73, -39, -5, 38, 94, -28, -1, 20, -44, -8, 44, 68, 61, -20, 0, -14, -61, 38, -93, 
  -69, 41, -33, 86, -26, 35, 24, 14, -92, -59, 9, 7, 5, 2, 19, -43, -127, 30, 37, -15, 
  -26, -2, -32, -83, 31, -43, -22, 68, 74, -39, 52, -66, -19, -29, -12, -32, 22, -2, -37, -78, 
  -65, 19, -73, -24, 88, -6, -8, 52, -3, -55, 23, -66, 37, 53, 101, -23, 27, 5, 57, -14, 
  116, 42, 35, -52, -35, -50, 20, -32, -3, 20, 12, 14, 69, 54, -36, -43, 22, 109, 4, 10, 
  38, -56, -59, -2, 77, 20, -32, 25, -24, 24, 127, 1, 29, -45, 8, 3, -3, 68, -4, 41, 
  -73, -1, 72, 34, -4, -51, -11, 1, 29, 27, -63, -83, -45, -23, 78, 95, 81, 9, 101, -12, 
  -30, 101, -112, -29, 48, -36, 12, 16, -57, -62, -45, 17, 70, 44, 75, -37, 32, 2, 34, 83, 
  -13, 29, -80, -22, 80, -84, -19, -17, -89, 105, -66, -127, 42, 26, 18, -10, -75, 55, 4, -33, 
  40, -27, 13, -6, -96, -5, 4, -41, -64, -25, -124, 32, -61, 54, -21, -6, 93, 29, 59, -68, 
  -2, 46, -65, -3, -91, 57, -12, -16, 21, -122, 28, 34, -56, -26, -57, 14, 78, 12, 37, -6, 
  40, 41, 10, 113, 63, 34, -92, 53, -56, 10, -30, -61, -84, 55, -6, -78, 5, 22, 29, 37, 
  -38, -55, 127, 67, -1, -44, -107, 52, 107, -69, 19, -68, 21, -74, -66, -35, -44, -3, 115, 8, 
  -57, -97, -28, -73, -51, 11, 58, -8, 46, -21, -112, 26, 75, -5, -72, -15, -25, -10, 56, -34, 
  20, 89, -79, 36, -83, -52, 46, -13, 36, 8, -39, -70, 74, -70, 107, -19, -105, -56, 34, -41, 
  54, -21, -53, 84, 11, -46, 30, 28, 22, -24, 32, -12, 27, -127, 112, -39, -16, 59, -19, 5, 
  -18, 27, -28, 51, -24, 86, -26, 46, -127, 2, 2, 8, 19, -19, -66, -5, 7, -84, -5, -22, 
  -9, -24, 26, -1, 51, -4, -17, -21, 19, 67, -47, 14, -32, -25, 37, -19, 1, -32, -53, 31, 
  27, -13, 10, 33, -55, -29, -48, -40, -2, 5, -14, 61, -55, -26, -17, 31, -59, 18, -19, 67, 
  -23, 15, 6, 9, -13, -42, 84, -12, -5, -124, -21, 25, 42, 60, -14, -23, -28, -51, -50, -65, 
  -63, 93, -3, 26, -26, 13, -91, -49, -37, -2, 31, -4, -75, -72, -24, 5, 95, -33, 7, 14, 
  -94, 21, -86, 10, 26, -11, 11, -50, -96, -27, 23, -19, -37, -31, -15, -44, 2, -109, 1, -43, 
  -127, -78, -20, -66, -55, 26, 40, -14, -38, 10, 4, -17, -87, -41, -6, -83, -127, -1, 39, 111, 
  79, 40, 117, -52, -60, 46, -87, -43, -15, -44, -2, 35, 21, -118, -27, 45, -10, 70, -78, -78, 
  -80, 32, 78, -57, -48, 43, 57, -35, -6, 22, -4, 59, 12, -68, 44, -71, 34, 15, -70, -45, 
  -52, 28, 13, 5, 12, 6, 9, -87, -74, 16, 64, -48, 35, -34, 44, -78, 18, 5, 30, -1, 
  74, -59, -17, 66, 44, -51, -39, 97, 14, -70, -106, 86, -26, -54, -7, 0, 28, 82, -45, 37, 
  41, 31, -58, 83, 18, 33, 39, 57, 10, -22, 65, -73, -35, 1, 13, 7, 11, 29, -41, 34, 
  37, -82, -55, -80, 81, 33, -127, -6, 10, 2, -2, -84, 29, 12, -47, 112, -4, 54, -7, -15, 
  -35, 16, 41, -7, -36, -13, -4, -53, 68, -3, -18, -18, -21, -20, 8, -54, -27, -41, -56, 0, 
  -16, -17, -127, -8, 31, -43, 4, -19, 30, 6, -31, 24, 20, 10, -43, 19, -18, -26, -18, -56, 
  45, -28, -37, -16, 20, 5, 8, -57, 58, -11, 13, 32, 13, -18, -22, -33, -14, -33, 10, -12, 
  125, -112, 66, 42, 59, -8, 28, 28, -92, -75, 16, 45, -68, -34, -5, 127, 89, 59, -33, -79, 
  -55, -118, 28, 64, -56, 104, -64, -91, 93, -46, -14, -22, 37, 18, -66, 80, 120, 11, -68, -119, 
  -21, -40, -106, 83, -70, 6, -74, -54, 5, -51, 13, 34, 12, -23, -39, -79, -81, -47, 5, -79, 
  -5, -46, -18, 54, -36, 55, -58, -22, 82, 95, -7, -60, 18, 105, 26, -35, -26, -60, -70, -31, 
  37, 14, 58, -67, 49, 47, -37, 16, 127, -32, 34, -27, 31, 94, -53, 1, -8, -2, 35, 26, 
  -37, -6, 33, 6, -1, -63, 36, -1, -96, -19, -61, 49, -46, 92, -16, 51, -61, 22, -84, -34, 
  35, -38, 81, -5, 6, -79, 32, 82, 115, -68, -9, 92, 67, -62, -83, -20, 46, 30, -77, -97, 
  17, -28, 7, -86, -47, -6, -31, 108, -58, -36, 48, 15, 82, 3, 8, 93, -127, -47, -9, 81, 
  -21, -45, -7, -43, 23, -51, -31, -37, 58, 23, -1, -50, 113, -3, -101, -40, -20, 75, 45, -32, 
  -42, -44, 16, 5, -53, 14, -2, 61, -90, 66, -72, -117, -38, 36, -3, -8, -62, -12, 42, -87, 
  -82, 1, 26, -14, 2, 38, -10, 7, -12, -96, 48, -56, 34, 21, 2, 19, 39, 20, 63, 36, 
  18, 15, -4, 17, -7, -127, -26, -24, 26, 10, 34, -90, -31, 0, 34, -42, -55, -75, -35, 27, 
  55, -11, -55, 19, -6, -14, -92, -4, -111, -87, -87, 72, 53, -33, -1, -39, -84, 100, -41, 86, 
  -63, -44, 32, -112, 102, 1, 72, 46, 66, 34, 24, 19, 33, 41, 18, -112, 78, -127, -8, 17, 
  -61, -122, 3, 41, -34, 35, -82, -58, -112, -40, 79, 9, -25, 48, 88, -24, 23, 5, -64, 116, 
  -92, 1, -30, 124, -16, 23, 40, -9, -13, -34, -35, 0, 45, 86, -66, 7, -24, -40, 73, 82, 
  35, -5, 23, 51, -17, -26, 26, 49, 12, 7, -20, -50, 12, -98, 127, -57, 77, 0, 38, -43, 
  -21, -12, -12, -22, 2, 24, 10, 9, 38, -34, -44, -62, 39, 15, -23, -30, 27, -86, 45, -23, 
  24, 2, -67, -28, 41, -19, -23, 18, -19, 30, -7, 60, 70, 10, 36, 18, 59, 61, 36, 35, 
  19, -72, 33, 28, -20, -38, 14, 60, -17, 69, 49, -56, -53, 23, -16, -26, 86, 89, 29, -37, 
  127, 80, -111, -84, 6, -43, -35, -43, 80, 29, -29, 74, -27, -15, -80, -115, 56, 39, -54, 41, 
  65, -68, -70, -104, 10, 5, 46, 43, 33, 38, -15, 60, -13, -29, 0, 82, 12, -99, -46, -69, 
  -36, 122, 65, -56, -45, -65, -54, -40, -120, -46, 25, 98, 113, 37, -31, 12, 30, 75, 26, -40, 
  72, 22, 125, 3, 25, 103, -38, 19, -86, 50, -11, -23, 7, 23, 13, 18, 36, -50, -32, -38, 
  127, 95, -58, 66, -89, 12, 43, -12, 39, -5, 61, -48, -2, -69, 120, -18, -76, -117, 87, 100, 
  73, -61, -62, -58, 103, -61, -22, -23, 48, -55, -44, 11, 34, 9, -24, 31, -36, 51, 52, -7, 
  36, -47, 60, 16, -49, 24, 13, 33, -24, -24, -19, 40, 29, 43, 48, 14, -44, 7, -11, -58, 
  -20, 73, -15, -8, -16, -44, 22, -37, 5, -60, -34, 43, -32, 19, 27, -23, -13, -38, -9, -23, 
  -20, 7, -19, -19, 15, 22, 36, -127, 59, 11, 6, 28, -13, -18, 22, 9, 36, -20, 36, 1, 
  -3, -69, 57, 93, 45, -30, 27, -22, 28, 73, 5, 40, -40, 69, 40, -19, 54, -58, -4, 24, 
  -21, 17, 98, 7, 29, -32, 72, -37, 6, 20, -26, 92, 35, -33, -1, 77, -34, -22, 30, -26, 
  -65, 1, 30, -68, 94, 22, -44, 4, -11, -89, 49, 22, 22, 127, -22, 88, 40, 77, 63, -44, 
  41, 111, -64, 74, 1, 35, 67, 69, -104, -31, -14, -103, 26, 15, 65, -33, 36, -89, -39, 109, 
  43, -2, 3, -23, -22, 16, -54, -79, 87, -95, 59, -2, 31, -25, 49, 34, -96, -27, -12, 14, 
  -87, 40, 23, -21, 22, -33, -16, 76, 0, -21, -98, 18, -39, 3, 79, 127, -62, 86, -69, -69, 
  96, -27, 26, 79, 57, -35, 61, 60, 47, -42, 29, -62, 107, 71, 31, -11, 91, 109, 109, 88, 
  -67, -25, 1, 20, -21, 107, 11, -66, -19, -84, -27, -55, -108, -117, 98, 82, 6, -65, -7, 64, 
  -22, 27, 74, -127, -10, 20, 62, 78, -16, -71, -7, 50, -24, 38, 3, 28, 1, 63, 102, 28, 
  75, -77, -72, 67, 21, 59, -55, -61, -10, -54, -43, 18, 53, -59, 5, -6, 8, -102, 102, -28, 
  -5, -4, -79, -2, -65, -51, 73, -46, 79, -3, -20, 17, -127, -86, -110, -72, -69, -29, 30, 40, 
  -70, 2, 27, -4, -32, -81, -10, -67, -123, -56, -48, -5, -8, 34, 1, 99, 7, -14, -38, -3, 
  26, -10, 93, 7, 62, 69, 21, -41, -42, -96, -26, -99, -1, 70, 50, 8, 72, 118, 39, 10, 
  82, 60, 42, 46, 0, -110, -44, -43, 6, -36, -71, 25, -127, -69, -68, -36, -31, -39, 29, 23, 
  41, 47, 86, -12, 2, -121, 59, -41, 32, -29, -65, -36, 93, -80, -79, 5, 6, -37, -87, 14, 
  -67, 28, 77, 22, -4, 69, 41, -65, 82, 17, -33, 87, -6, -41, -63, -20, -14, 83, -93, 21, 
  -48, 66, -95, -95, -35, -85, 29, -14, -14, -42, -28, 119, -50, -14, 31, 24, 113, 99, 112, -94, 
  -56, -37, -18, 29, 5, -5, 104, -48, -16, -70, -42, -61, 18, -2, -39, -72, -45, -30, -127, 45, 
  -22, 43, 6, 59, -40, 60, 111, 14, -77, -56, -24, -14, -72, 106, 56, -42, -83, -7, 99, 13, 
  -1, 65, 75, -12, -87, -21, 36, -77, -75, -51, 49, 79, 73, 127, -77, -99, 21, 125, 74, 30, 
  -68, -93, 109, -2, 76, -29, 75, -33, 47, 76, -95, 50, 64, -66, 32, -15, -24, 48, 17, 98, 
  3, 25, 9, -30, -48, -23, 33, -44, 29, -37, -51, -109, -6, -75, -1, 75, 17, -102, -31, 34, 
  -18, -24, 65, -55, 15, 41, 35, 33, 66, -37, 64, 40, -23, -32, 15, -56, -23, -98, -19, -22, 
  -6, -87, 64, 25, 69, 63, 3, 6, -43, 33, -49, -39, 35, 8, 73, -5, -12, 24, -16, 50, 
  127, -35, -24, -31, -24, -74, -29, 11, 5, 61, 101, 53, -44, -2, -120, 66, 0, 26, 45, -35, 
  -4, -23, -18, -20, -6, -36, 65, -67, 18, 10, -58, 21, -7, 84, 12, -2, 69, 52, -58, 4, 
  -57, -4, 38, -62, -15, 23, -64, -14, 25, -33, -27, -100, -20, -10, -11, 21, -69, 29, -30, -54, 
  9, 0, 49, 30, 6, 65, 20, -53, 11, -27, -5, -19, -42, -63, -127, 51, -62, 62, 103, 16, 
  -67, 49, -26, -6, -1, -24, 22, -79, 41, -14, -5, -48, -89, -62, 5, -7, 47, -31, 38, -68, 
  22, -10, 27, -38, 10, 36, 47, 105, -29, 127, -46, -77, 43, 4, -43, 71, -36, -30, 12, 0, 
  -5, 1, -11, 29, -10, -55, 91, 25, -16, 1, -8, 22, -58, -10, -13, 20, -87, -35, 77, -5, 
  -10, 18, -14, 15, 22, -16, -55, 62, 53, -83, 43, -15, 3, 8, -16, -69, 26, -10, 14, 6, 
  35, -49, -68, 18, -69, 23, 82, -2, -4, -78, -61, -58, 22, -60, -5, -35, 71, 11, -13, 28, 
  63, -16, -55, 9, 23, -54, -42, 2, 52, -26, 86, 87, -5, -40, 52, -41, 15, -62, -20, 8, 
  7, 73, 56, 35, 14, 13, 42, 39, -82, 1, -62, 16, -29, -23, 36, 40, -67, 48, -127, 22, 
  -27, 42, -31, -25, 19, 33, 3, -84, -127, 90, -104, -58, -6, -21, 91, -72, -24, -9, 71, 7, 
  72, -34, -19, -10, -103, 4, 56, -19, 92, -23, -45, 20, 11, -32, -61, 92, 30, -32, -26, 2, 
  -35, 3, -66, -15, 27, 12, 11, -15, 35, -17, -5, -19, 83, 23, -11, 26, 63, 7, -9, 26, 
  -38, -108, 98, -54, -33, -5, -35, 9, 67, 36, -113, -79, -54, -48, -106, 33, 25, 15, -32, -18, 
  38, 22, 11, -4, 34, 23, -108, -81, -66, 49, 6, -38, -51, 22, -47, 15, 75, -46, -15, -44, 
  -31, -8, -34, -45, 38, -22, 67, 39, 15, -127, -3, -54, -2, 12, -80, 79, 44, 31, -22, -48, 
  -106, 27, 79, 35, 92, -5, -13, 20, -1, 35, -35, -19, 55, 17, 29, 28, 34, -17, -76, -72, 
  -79, -65, 11, -20, -25, -11, 11, 22, -15, -33, -114, 55, 17, -17, 46, 38, -20, 72, 1, 71, 
  -44, 32, -18, -22, -44, -27, 65, -25, -3, 10, 29, 7, -95, -36, 11, -108, -33, 41, 44, 54, 
  -36, 87, 21, 10, 127, -26, 35, -31, 68, -5, 38, 49, -7, -11, 5, 55, 5, -28, -18, -42, 
  -3, 15, 49, -64, -5, -17, 39, -127, 14, -61, -66, -29, 70, -40, -113, 23, 33, -51, -16, -25, 
  -28, 91, 14, -42, -47, -47, 45, -99, 0, 46, 43, 10, -31, 8, 25, 11, -5, 4, 86, -17, 
  -13, -95, 37, 26, -60, -5, -83, 42, -23, 100, 17, 20, -74, 11, 28, -84, -28, -22, -15, 50, 
  20, -21, -4, 53, -42, -11, 27, 34, -96, -44, -71, 46, -12, -37, 74, -7, 42, 7, 3, -26, 
  47, 16, 5, 92, 24, 127, -8, 44, 11, -22, -22, -22, -52, -3, 15, 62, 14, 46, 35, 51, 
  -3, -9, 0, 27, -15, -12, -58, 17, 23, -116, 68, 23, 67, -56, 39, 3, -55, -15, -5, -46, 
  101, -106, 2, -33, 46, -45, 24, 3, -46, 98, -10, 8, 49, 69, 36, -66, -12, 1, 45, 46, 
  80, 30, 59, 37, -71, 39, 47, -14, -33, 4, 72, -20, -26, 77, 0, 45, -31, -26, -4, 60, 
  -44, 0, -21, -75, 86, -42, -67, 67, -60, -38, -13, 79, -45, -1, -64, -37, 85, 19, 14, -127, 
  55, -118, 2, -35, 63, -3, 61, 31, 14, 72, 35, 12, -65, 33, -127, -15, 38, -31, -10, -54, 
  45, 88, 26, -78, -78, -56, -70, 54, 47, 14, -2, 33, -32, -15, 67, 41, 29, -59, -44, 3, 
  -39, -40, 42, -35, 54, 2, -10, -44, 22, 115, 76, -63, -46, -70, -34, -14, 21, -15, 24, -55, 
  17, -17, -30, -39, -41, -74, 3, 5, -51, -19, 38, 50, 19, -24, -6, -29, -21, 13, -19, -6, 
  -27, 40, 85, 40, -36, 82, -56, 34, 5, 20, 48, -37, 22, -75, 12, 26, -96, -39, -50, 0, 
  -47, 7, -46, -37, 23, 42, 57, 64, 58, 11, 86, 38, -79, 1, -61, 33, -18, 4, 16, 37, 
  55, 8, 42, -1, -36, 1, -5, -9, -127, 17, -53, -39, 30, -61, -65, -25, -36, 4, 15, 37, 
  17, 18, -81, -1, 102, 28, -9, -3, 44, 100, 9, -29, -127, 78, 53, 83, -14, 57, 32, 57, 
  -11, 59, 18, -11, 67, -29, -68, 18, 59, 66, 11, 38, -9, -13, 37, -63, -66, 4, 33, -44, 
  65, 72, -8, -55, -4, -48, 29, 29, 110, -69, 106, -61, 74, 88, 123, -104, 4, 47, 7, 34, 
  33, 75, -41, 35, -25, 74, -10, -76, 61, -5, -11, -43, -2, 16, -25, -38, -16, 38, -13, -102, 
  13, 29, -41, 50, -27, 29, -60, -42, -70, -24, -22, 3, -37, 31, -17, 34, 56, 31, -10, 73, 
  13, 40, 71, 34, -46, 127, -24, 13, -2, 42, -79, -79, -24, -55, -43, 40, -36, 12, -39, -27, 
  45, -77, -98, 45, 18, -99, -36, -34, 28, -2, 70, -25, 36, -70, -64, 11, -24, 119, -71, -5, 
  -31, 6, -21, 37, 40, -32, -12, 94, 18, -29, -18, 31, -1, 28, 76, -7, 28, 55, 92, -82, 
  1, -56, 47, 31, -6, -26, -121, -38, -58, 64, -9, -44, 89, -47, -3, 30, -2, -34, 62, -1, 
  -15, 127, 5, 91, 5, 127, 3, -110, -25, 39, 57, -37, -48, -27, 99, 38, 33, -9, -9, 115, 
  34, 50, 42, 6, 110, -33, 2, -41, -71, -46, 60, -17, -53, 25, -1, 40, -3, 95, -94, 8, 
  -89, -31, 37, 30, 35, 42, -21, 25, -72, 25, 55, -58, 35, -17, 93, -16, -61, 107, -64, -14, 
  -38, -54, 32, 68, 45, 0, -63, 88, -60, 26, -33, 61, 56, 58, -26, -14, 73, 105, -28, -52, 
  -29, -32, -6, -57, 82, -62, -34, 49, -65, -6, -9, 38, 40, -78, -48, -55, -46, -25, 17, -53, 
  49, -13, -20, 44, 99, 2, -11, -10, -32, -60, -60, 127, -49, 17, -14, 95, -14, -33, -51, 27, 
  -24, -11, -54, 20, 31, 14, 27, -96, 28, -27, -32, -50, 49, -93, -61, 51, 63, -46, 29, -18, 
  37, 21, -97, 17, 57, -6, -123, -124, -3, 24, -59, -2, -26, 8, -31, -41, -6, 78, -78, 30, 
  -42, -75, -41, -28, -17, 127, 83, 106, -26, 10, -62, -22, -3, 25, 30, 104, -26, -56, 18, 11, 
  -124, 63, 7, -9, -67, 40, 54, -73, 1, 63, 43, -101, -8, 15, 29, 9, -71, -55, 13, 93, 
  -77, 50, -93, 66, 7, -127, 39, 66, -71, 3, -4, 10, 50, 28, -102, 78, -76, 59, -36, 27, 
  13, -58, 36, -65, 5, -66, 30, 10, -25, 62, -65, -44, 43, -96, 5, 17, 39, 41, 63, 20, 
  20, -24, -91, -95, 19, 8, 26, 50, 2, 70, -68, 31, -30, 74, 0, 63, 31, -42, 11, -2, 
  -70, -66, -92, 19, 53, 9, -84, -27, 101, 76, 23, -51, -96, 31, -79, -8, -1, -66, 22, 60, 
  22, 41, -10, -3, -5, 64, -3, -26, 70, -34, -24, 12, 37, 51, 110, 63, 87, -68, 70, -57, 
  -125, -84, -39, 91, 14, -12, -24, 17, 37, 20, -127, -41, 69, 37, -21, 51, 35, 27, 91, -43, 
  -78, -16, 95, 10, 26, -30, 67, -54, 66, 17, -57, -7, 52, -110, 62, 91, 38, -127, 56, -35, 
  -50, -55, 6, -11, -45, 42, -52, -35, 9, 48, -101, 49, 20, 42, -23, -119, -1, -90, -22, -3, 
  25, 48, -15, -28, -100, -37, 32, -78, 41, 7, 40, -95, -8, 35, -67, -34, -30, 26, -78, -54, 
  80, 20, 4, 4, 15, 6, 76, 44, -71, -29, 79, 60, 12, 20, -3, -43, 24, 19, 50, 41, 
  -77, 31, 2, -23, 30, 60, -19, 78, 47, 4, 24, -39, -45, 9, 53, -57, -10, 41, -33, -22, 
  -98, 54, 8, -84, 71, -14, -17, -45, 63, -38, 63, -19, -29, 7, 127, -10, 8, -48, -2, 70, 
  -4, 116, -3, -28, 65, -91, -48, 87, -28, -18, 25, -15, -91, -73, -86, -2, 23, -65, -51, -77, 
  -50, 108, 42, 11, -44, 7, 37, 66, -19, -66, 54, -120, -42, 17, 13, -84, -20, 1, -1, 23, 
  -33, 87, 23, 46, -36, 16, 90, 28, -57, -65, 40, 39, -81, -9, -9, 54, -96, 4, 18, -127, 
  -97, 37, 21, -45, 36, 64, -51, 50, 2, -4, 39, -37, -49, -4, 10, 18, -123, -16, 60, 59, 
  -45, 14, -33, -8, -54, -11, -78, -44, 64, 36, 49, -40, -83, -46, 56, 28, -29, 55, -58, -26, 
  -13, -125, -21, 34, 38, 4, 15, -31, 80, 11, 56, 36, 60, 26, 77, -4, -17, -41, 49, -7, 
  -48, -127, 4, -91, -27, 40, 7, 9, 2, 36, 10, 34, 43, 19, -15, -47, -64, 48, 55, -66, 
  -3, 18, 46, 30, -48, -16, -81, -36, 9, 66, 39, 43, 9, 17, 102, 38, -30, 72, -21, -3, 
  53, 63, 0, -49, 9, -41, -4, -35, 59, -127, 32, -32, 46, -61, -33, -75, 46, 77, 26, 46, 
  -40, -23, 16, 3, 42, -76, -48, 12, 94, 90, -101, 9, 1, -54, 51, 20, 86, -23, -56, 67, 
  1, 33, 29, 25, 13, 7, 78, 5, 92, -27, 18, -17, 41, 60, -111, 17, 103, 5, 56, -47, 
  51, 59, 4, -17, 105, -55, -79, 30, 50, 44, 53, 61, 82, -70, -51, 45, 51, 8, -30, -43, 
  4, 45, 0, 5, 29, -83, -2, 9, -31, -24, 61, 127, 54, -64, -7, -5, -91, -49, -26, 16, 
  -2, 84, 6, -20, 13, 9, -3, -19, -52, -47, -11, 42, -36, 76, -41, 70, -59, 23, -52, 39, 
  -81, 59, 15, 26, 70, 18, 36, -16, -69, -34, -43, -37, -61, 123, 78, -26, 64, 18, 32, -2, 
  -33, 2, 3, 50, 33, -67, 32, -106, -38, 52, -73, 77, -34, -2, -4, 127, 8, 33, 89, 12, 
  28, 52, -44, -13, 42, 36, 7, 110, -10, 19, 27, 25, 106, 111, -57, 28, 93, -32, -18, -26, 
  95, -50, 127, 89, -66, -76, -35, 58, 2, 58, 26, 74, -58, 126, 83, 111, 101, -42, 31, 34, 
  -4, 6, -59, 9, -34, 7, -46, 78, -42, -74, 65, 67, -78, 9, -38, 3, -15, 16, -6, -55, 
  -23, -76, 14, -20, 22, -78, -19, 19, 41, 93, -52, 20, -79, -39, -93, 112, 71, -23, -3, -95, 
  55, 18, -53, -39, 29, -11, 61, -58, 2, -85, -48, 56, -19, 22, 76, 35, 7, -13, -13, -6, 
  6, 6, -67, -72, 88, 2, -17, 20, 127, 42, 70, 44, 89, 106, 44, -61, 68, -10, -28, 2, 
  115, -43, 4, -19, 104, -51, -2, -23, 3, -96, -58, 44, -55, -26, -94, -38, -98, -61, -46, 53, 
  62, 28, 2, 98, 33, 81, -37, -51, -13, -75, 64, 18, -9, 19, 69, -21, 55, 127, -62, -19, 
  -15, 2, -49, -57, -13, -29, 10, 17, 35, 30, -51, -113, 9, -66, 49, 33, -40, -36, -105, -20, 
  103, 7, -24, -14, -109, -28, -3, -63, 63, -47, -20, -6, 5, -64, -38, 20, 84, -16, 35, 62, 
  -5, 60, -68, -13, 50, 27, -2, -46, -20, 20, 10, -10, -19, 7, -127, 53, -54, 7, 44, 108, 
  7, 43, 23, 0, 25, 35, -48, 8, 54, -60, -82, -83, 53, -30, -114, -124, -11, 41, 26, 5, 
  15, 9, 87, 35, 70, 63, 25, 66, -9, -33, -86, -50, 35, 44, -27, 4, 18, 1, 29, -90, 
  11, -1, -46, 11, 37, 50, -12, -21, -48, -1, -48, -25, 69, 31, 27, 5, -24, -121, -90, 1, 
  6, -120, -58, 110, 47, 50, -41, 39, 33, 17, 77, 103, -110, -61, 88, -53, -52, -58, -75, 53, 
  -63, 54, -39, -26, -36, 80, 115, -1, -31, 19, -85, -57, -127, -78, 72, 28, 30, -63, 39, -40, 
  -34, 78, -33, 14, 26, 1, -79, 40, -76, 32, -63, 50, -45, 9, 28, -40, -56, 1, -66, -56, 
  6, -1, 56, 36, 34, -40, -41, 5, 61, -85, -73, 52, -52, 61, -18, -42, 53, 101, -71, -46, 
  -46, -97, 69, -8, 45, 80, 33, 47, 106, -8, 37, -63, 6, 70, -43, 107, 63, 127, -18, -5, 
  -38, 17, 1, -44, -62, 63, 62, 20, -42, -23, 71, 30, -55, -110, -74, 19
};

#if HAS_BIAS
alignas(16) static NS_PUT_IN_TCM int32_t conv_4_bias[] = {
  3050, -6036, -2792, -4920, 2566, 3719, -4042, 1847, 1495, 1594, 1690, 7181, 4171, -399, 3461, 3797, -822, 3324, 4882, 880, 
  -1267, 1062, -2672, -808, -5813, -536, -3983, 5958, -2404, 94, 521, -1073, 2107, 953, 638, 1506, 4034, -1731, 2849, -622, 
  262, 1227, 368, -2933, 442, -1037, -3659, 1779, 3769, 301, -270, 2441, -1966, 3602, 1843, -3268, -3412, -2171, -2984, -843, 
  50, -776, 2696, -1538
};
#else
static NS_PUT_IN_TCM int32_t *conv_4_bias = NULL;
#endif


alignas(16) static NS_PUT_IN_TCM int8_t conv_4_scratch_buffer[SCRATCH_BUFFER_SIZE];
alignas(16) static NS_PUT_IN_TCM int8_t conv_4_weight_sum_buffer[WEIGHT_SUM_BUFFER_SIZE];

static cmsis_nn_context conv_4_ctx = {
    .buf = conv_4_scratch_buffer,
    .size = sizeof(conv_4_scratch_buffer),
};

static cmsis_nn_context conv_4_weight_sum_ctx = {
    .buf = conv_4_weight_sum_buffer,
    .size = sizeof(conv_4_weight_sum_buffer),
};

const cmsis_nn_per_channel_quant_params conv_4_quant_params = {
    .multiplier = (int32_t*)conv_4_multiplier,
    .shift = (int32_t*)conv_4_shift,
};


const cmsis_nn_conv_params conv_4_conv_params = {
    .input_offset = -conv_4_input_zero_point,
    .output_offset = conv_4_output_zero_point,
    .stride.w = 1,
    .stride.h = 1,
    .padding.w = 0,
    .padding.h = 0,
    .dilation.w = 1,
    .dilation.h = 1,
    .activation.min = -128,
    .activation.max = 127,
};

int32_t aot_conv_4_init(void)
{
    return arm_convolve_weight_sum(
        (int32_t *)conv_4_weight_sum_buffer,
        conv_4_weights,
        &conv_4_input_dims,
        &conv_4_filter_dims,
        &conv_4_output_dims,
        conv_4_conv_params.input_offset,
        conv_4_bias
    );

}

int32_t aot_conv_4_run(const int8_t* __restrict input, int8_t* __restrict output)
{

    return arm_convolve_wrapper_s8(
        &conv_4_ctx,
        &conv_4_weight_sum_ctx,
        &conv_4_conv_params,
        &conv_4_quant_params,
        &conv_4_input_dims,
        input,
        &conv_4_filter_dims,
        conv_4_weights,
        &conv_4_bias_dims,
        conv_4_bias,
        &conv_4_output_dims,
        output
    );

}
