/******************************************************************************
 * @file        aot_conv_10.c
 * @brief       Autogenerated AOT CONV_2D kernel
 * @details     This file was generated by HeliosAOT v0.2.2 on 2025-06-04.
 *   This kernel represents node #10 in the corresponding graph.
 *
 * @date        2025-06-04
 *
 * @copyright
 *   © 2025 Ambiq. All rights reserved.
 *
 *   This generated C module is licensed for use **only** on Ambiq hardware
 *   incorporating Ambiq’s sub-threshold power optimized technology.
 *   Any other use is strictly prohibited.
 *
 *   See “LICENSE.txt” at the root of this distribution for full terms.
 *
 * @note        Do not edit this file—any changes will be overwritten.
 ******************************************************************************/

#include <stdalign.h>
#include "ns_ambiqsuite_harness.h"
#include "arm_nnfunctions.h"
#include "arm_nnsupportfunctions.h"
#include "aot_conv_10.h"

#if defined(ARM_MATH_MVEI)
#define SCRATCH_BUFFER_SIZE 0
#elif defined(ARM_MATH_DSP)
#define SCRATCH_BUFFER_SIZE 256
#else
#define SCRATCH_BUFFER_SIZE 0
#endif

#define HAS_BIAS 1

// Input dimensions: input shape is [1, H_IN, W_IN, C_IN]
static const cmsis_nn_dims conv_10_input_dims = { .n = 1, .h = 12, .w = 12, .c = 64 };

// Filter dimensions: weights shape is [C_OUT, H_FILT, W_FILT, C_IN].
static const cmsis_nn_dims conv_10_filter_dims = { .n =  64, .h = 1, .w = 1, .c = 64 };

// Bias dimensions: bias shape is [1, 1, 1, C_OUT].
static const cmsis_nn_dims conv_10_bias_dims = { .n = 1, .h = 1, .w = 1, .c = 64 };

// Output dimensions: output shape is [1, H_OUT, W_OUT, C_OUT].
static const cmsis_nn_dims conv_10_output_dims = { .n = 1, .h = 12, .w = 12, .c = 64 };

// Quantization parameters (per-channel quantization)
static const int32_t conv_10_multiplier[64] = {
  1595487232, 1953384576, 1607700864, 1320764544, 1929698944, 1483112448, 2035934592, 1210112768, 1163299456, 1086611584, 2107533696, 1489252096, 1569364992, 1171292416, 1244072064, 1625796608, 1556516352, 1550030080, 1491284480, 1185098240, 
  1887302528, 1182389120, 1931743232, 1749417856, 1099799552, 1077716736, 1587026816, 1153081728, 1182490368, 1138820096, 1568653568, 1662318976, 1306552832, 1187332096, 1437018752, 1411609600, 1207045632, 1625780608, 1940934912, 1418616320, 
  1989423104, 1821774976, 1193021184, 1670069504, 1728374016, 1710557056, 1677558272, 1737221888, 1843064320, 1487160832, 1579481472, 1221566080, 1764568576, 1977737344, 1589708672, 1929099008, 1424620416, 1300771072, 1629953408, 1445467776, 
  1170984192, 1194994688, 1501138048, 1230961408
};
static const int32_t conv_10_shift[64] = {
  -8, -8, -8, -27, -8, -8, -8, -7, -7, -8, -7, -7, -26, -26, -7, -8, -7, -7, -7, -7, 
  -9, -7, -8, -8, -7, -7, -8, -7, -8, -7, -8, -9, -8, -7, -7, -7, -8, -8, -9, -7, 
  -8, -8, -7, -7, -7, -7, -8, -26, -9, -9, -8, -7, -7, -8, -8, -8, -8, -8, -7, -8, 
  -8, -7, -8, -8
};

// Offsets and activation parameters.
static const int32_t conv_10_input_zero_point = -128;
static const int32_t conv_10_output_zero_point = -128;

// Weight and bias data.
alignas(16) static NS_PUT_IN_TCM int8_t conv_10_weights[] = {
  10, 72, 4, 68, 6, -11, -36, -102, 25, 55, 67, -24, 35, 26, 23, -83, 49, -6, -34, 4, 
  -104, -11, -37, 25, 2, -9, 20, -33, -5, -36, -15, 26, -28, -15, -42, 54, 76, -46, 40, -31, 
  4, 4, 25, -34, -41, 16, 69, 57, -56, -44, -33, 8, -18, 44, -27, 16, 127, 5, 31, -23, 
  3, -23, 20, -23, 31, -39, 89, -2, 5, 13, 49, 91, -53, 16, -28, -31, -20, 6, 19, 63, 
  -40, 26, 60, 22, 10, 45, 17, -14, 28, 5, 80, 52, -85, 54, -40, 48, 47, 100, -38, -59, 
  37, 47, 38, 123, 60, 24, 62, 21, 127, -74, -11, -3, 36, 87, -5, -1, -36, 69, -22, 100, 
  -31, -119, 21, 4, 112, 66, -15, 43, 106, -28, 10, 127, -25, -37, 92, 112, -53, -80, 33, 81, 
  -55, -39, 97, 100, -54, -110, -74, -12, 13, -65, -59, -67, -53, -19, -24, -63, -124, 9, 47, -13, 
  -7, 102, -78, 22, 48, -69, 22, -25, 77, -4, -42, 38, -44, 29, -50, -22, 4, 12, -71, 13, 
  28, 111, 23, 78, -32, 126, 109, 4, -71, 69, -51, -71, 0, 0, 0, 0, 0, 0, 0, 0, 
  0, 0, 0, 0, 0, 0, 0, 0, 0, 0, 0, 0, 0, 0, 0, 0, 0, 0, 0, 0, 
  0, 0, 0, 0, 0, 0, 0, 0, 0, 0, 0, 0, 0, 0, 0, 0, 0, 0, 0, 0, 
  0, 0, 0, 0, 0, 0, 0, 0, 0, 0, 0, 0, 0, 0, 0, 0, 49, 20, -46, 73, 
  -49, -6, 7, -17, -50, 98, 35, 34, -41, -2, -11, -40, -22, -18, 19, 7, 8, 29, -48, -23, 
  37, 39, 31, -19, 8, 11, 12, -10, 22, -8, 24, -46, 20, -38, -6, -33, -34, 8, -24, -66, 
  -7, 0, 6, -62, 29, -51, 19, -92, -35, 40, 40, 127, 17, -8, -52, -19, 43, 11, 17, 18, 
  -37, 1, -22, 66, 27, 12, 21, 97, -13, -37, 124, 44, -59, -24, -33, 15, -88, -11, 106, 75, 
  -41, 35, -45, -63, 96, -89, 17, 66, 35, -101, 127, -39, 122, 40, 8, 52, 11, 20, -38, -49, 
  32, -12, -75, 8, -24, 8, 12, 76, 47, 38, 56, -20, 35, -14, 75, -31, 34, -7, -74, -69, 
  -21, 47, -30, -12, 13, -8, -89, 83, 17, -64, 25, 15, 47, -28, 50, 26, 81, 67, 41, 24, 
  5, -44, -81, -71, -33, 95, 39, 22, -81, 23, 51, -82, -14, 80, -19, 36, -23, -39, -78, -89, 
  20, 15, 19, -69, -26, 50, 67, -76, -67, 38, -31, 1, 127, 10, 50, -53, 116, -7, 67, -64, 
  -124, 80, 40, 27, -7, -14, 34, 22, -36, 64, -4, 104, -1, -39, -18, -55, -56, -66, 34, 13, 
  12, 44, -115, 9, 2, 4, -52, 13, 127, -27, 19, -55, 10, 20, 60, 6, -28, 56, -64, -57, 
  -32, 7, 23, 0, -59, -25, -14, -1, 12, -31, 6, 87, 60, 8, -7, 61, -32, 49, 67, -34, 
  31, 31, 38, -111, 3, 39, 41, -51, 53, -51, 10, -32, 14, -64, -6, -35, 21, -20, 12, -31, 
  -24, -14, 38, 16, 11, 27, 14, -42, -9, -26, 20, 3, -25, 30, -36, -33, -2, 24, 82, -5, 
  -37, -28, -14, 27, -12, -22, -1, -26, -18, 1, -5, 35, -53, 24, 9, -50, -50, -25, 19, -63, 
  21, 6, 49, -83, 127, -26, 71, -5, -23, -5, -67, -44, -50, -26, -33, -22, 82, 6, 11, -80, 
  31, -58, 43, -85, -61, -44, 43, 0, 29, 16, 22, -38, -64, -13, 30, -32, 14, 17, -6, 53, 
  -2, -8, -66, 31, 57, -48, -22, 34, 11, -31, 20, 95, 122, -57, -19, 80, 35, -41, 25, 127, 
  -11, -41, -54, 85, -11, 27, 32, -35, 70, -23, 79, 54, 20, -80, -38, -27, 48, 12, 14, 98, 
  46, -9, 38, 66, -28, 50, 42, -19, 8, 38, -8, 43, -6, 39, -7, 36, -70, 65, -127, -23, 
  4, -6, -3, -54, 21, -46, 28, 19, 23, 5, -92, 42, 10, 20, -6, 54, -23, 8, -10, 41, 
  17, -18, 17, 32, 63, -16, 8, -31, 26, 47, -64, 8, 26, 31, 32, -16, -30, -60, -86, -17, 
  10, -50, -28, 50, -53, -123, 0, -56, -30, 56, 6, 30, -1, 10, 6, -30, -33, 127, -4, 24, 
  -92, -25, 15, 19, -13, 28, 56, 0, 28, 20, -46, -11, -106, 22, 0, 5, 69, -18, 64, 0, 
  26, 21, 43, -28, -46, 30, 25, -8, -36, -42, 5, -1, -19, -16, 25, 108, 35, -43, -13, -1, 
  1, -4, -10, 3, -24, -45, 53, 37, 0, 0, 0, 0, 0, 0, 0, 0, 0, 0, 0, 0, 
  0, 0, 0, 0, 0, 0, 0, 0, 0, 0, 0, 0, 0, 0, 0, 0, 0, 0, 0, 0, 
  0, 0, 0, 0, 0, 0, 0, 0, 0, 0, 0, 0, 0, 0, 0, 0, 0, 0, 0, 0, 
  0, 0, 0, 0, 0, 0, 0, 0, 0, 0, 0, 0, 0, 0, 0, 0, 0, 0, 0, 0, 
  0, 0, 0, 0, 0, 0, 0, 0, 0, 0, 0, 0, 0, 0, 0, 0, 0, 0, 0, 0, 
  0, 0, 0, 0, 0, 0, 0, 0, 0, 0, 0, 0, 0, 0, 0, 0, 0, 0, 0, 0, 
  0, 0, 0, 0, 0, 0, 0, 0, 0, 0, 0, 0, 0, 0, 0, 0, -23, 64, 74, 32, 
  -35, -39, 19, 55, 43, 34, 45, 26, 21, 59, -9, -1, -18, -34, 91, -11, 54, 6, -48, 35, 
  38, -37, 1, 17, -30, 44, -50, 41, 18, 16, -13, -30, 1, -14, -35, 64, 58, -13, 13, -79, 
  127, -14, -29, 88, 69, 24, 18, 43, 19, -9, -5, 26, 49, -8, 14, -24, -20, -1, 2, -1, 
  19, -59, 39, -57, 19, 49, 37, 13, -65, 28, 43, 52, -1, 24, -14, 127, 22, -70, 20, -3, 
  76, -91, -48, -15, 47, 8, 5, -24, 12, 22, 12, 28, 10, 43, 21, -28, -11, -20, -42, -1, 
  -15, 22, 22, 65, 95, -35, -66, 76, 10, -10, 21, 8, -7, -6, 25, -35, 38, -39, 41, 3, 
  -16, 60, -68, -51, -12, 70, -6, 15, 42, 0, -10, -20, -46, -6, -7, -21, -72, 8, 16, 22, 
  -34, -58, 127, 5, -4, -2, 32, -20, 31, 7, 19, -15, -6, 47, -31, -36, -38, 11, 42, -26, 
  32, -5, 8, 21, -40, 31, -90, -14, -4, -34, 4, -22, -14, -3, -29, -49, -7, -11, -11, -35, 
  -30, -37, 34, -7, 19, 47, 26, 25, 26, -2, 11, 6, 25, -8, -6, 33, -5, -45, -42, 4, 
  -43, -82, -14, 22, -20, -127, 35, 34, 25, 86, 61, -29, 11, -16, -97, -19, 23, -44, -23, 70, 
  -28, -35, 45, -46, -29, -42, -3, 52, 11, -9, -87, -5, 6, 36, -32, 55, 13, -4, 58, 10, 
  31, 20, 28, 28, -42, 17, 27, 40, 35, 6, -36, 7, -3, -109, 11, -55, -48, 25, 21, 56, 
  -3, -50, -87, -56, -32, -47, -22, 4, -99, 4, -30, 26, -45, 87, 52, -5, -23, 11, 42, -50, 
  -29, 25, 0, -85, -2, 5, -3, -70, -70, -15, 4, 37, 20, -93, 76, 32, 33, -3, -12, 34, 
  35, 84, -61, 32, 49, 19, -47, -3, 59, 16, 0, 4, -7, 8, -14, 127, 46, -52, 43, -47, 
  -63, 19, 51, -4, 2, -39, 121, 88, 61, -45, -46, -54, 69, -43, 55, 48, -70, -47, -31, -14, 
  42, 6, 26, -40, -20, 13, -127, 65, 69, -32, 19, -15, 42, -39, -32, 18, -36, 15, 80, -50, 
  -33, -31, 50, -28, 89, -7, 43, -59, 55, -50, 2, 17, -1, 1, 82, -75, -18, -62, -3, 17, 
  87, -10, 28, -34, -14, -5, -3, -39, -31, -35, 40, 68, 0, -103, 68, 33, -15, -27, 103, 7, 
  -23, -8, -48, 35, 24, 5, -94, 68, 6, -127, -2, 55, -51, 70, 42, -1, 30, -23, -28, -52, 
  -19, 84, -68, -5, -89, -37, -64, 31, -22, 43, 34, -49, 34, 27, 22, -33, -17, 28, 83, -2, 
  66, 55, -12, 57, 54, -43, 1, -30, 64, -21, -27, 11, -33, -21, 52, 28, -3, 1, 36, -18, 
  67, -49, 26, -18, 9, -10, -70, 32, 14, 9, -69, 30, -66, -22, 5, 24, 20, 97, -33, 2, 
  -26, -15, -3, -51, -18, 62, 7, 39, -72, 4, -25, -7, -27, 44, 17, 4, 127, -22, -15, -29, 
  -12, 53, 0, 45, 9, 30, -6, -35, 1, -6, 26, 5, 14, -50, -66, -5, 53, 102, -51, -70, 
  22, 94, 27, 29, -6, 5, 30, -20, -68, 85, 7, 72, -69, -4, -24, 7, 42, -7, -53, 15, 
  67, -16, 20, -127, 71, 34, -39, -33, 22, -5, -28, -2, -36, 35, -14, -66, 39, -45, -24, 40, 
  6, -43, -15, 48, 38, -8, -31, 119, 21, -48, 44, -24, 19, -27, 50, -40, 3, 58, 43, -11, 
  -17, -73, -35, -2, -4, -3, 14, -49, 67, -10, 35, 125, 37, 62, -30, 52, 22, 120, -18, 29, 
  10, 0, 19, 54, 47, -11, 59, -77, 20, -34, 35, -13, 44, 54, -45, -127, -15, -4, 7, 6, 
  6, -38, 12, -25, -53, 43, 20, -69, 27, 35, 40, -77, 75, -8, -60, 81, 21, -29, -42, 20, 
  1, 10, 53, -68, 34, -16, -11, 13, -63, 42, 15, -12, -57, -53, 22, 83, -29, 7, 2, -29, 
  4, -19, -13, -39, 23, 27, -21, -11, -13, -9, 62, 127, -1, 10, -4, 60, 11, 10, 38, -38, 
  -25, -51, 40, -48, 18, -20, -24, -11, 19, 13, 28, 34, 4, -15, -24, -45, 6, -40, 22, -25, 
  9, -8, 73, 25, -11, 15, -3, -19, 12, 36, -20, 58, -17, 23, -11, -29, 29, 10, -69, 31, 
  50, -62, -5, -19, -24, -57, 2, -4, 82, 33, -76, 21, -10, -21, 39, 104, 13, -11, 11, 84, 
  23, -33, 119, -127, 107, 8, 28, -50, 0, -39, -28, -6, -19, 24, -52, 59, -70, 3, 40, -101, 
  48, 14, -30, -22, 22, 39, -83, 44, 35, -67, 31, -3, 71, 1, 42, 44, 62, 16, 109, 87, 
  27, 62, 95, 32, -73, -99, 6, -39, -27, 45, 34, -12, -51, 127, -60, 9, -21, -51, 78, 7, 
  -15, -53, 114, 6, 33, -20, 91, -17, -8, -47, -50, 87, -95, -26, 8, 17, 70, 23, 32, -7, 
  -51, -30, 17, 36, -101, -72, 59, 54, -66, -72, 34, 38, 9, 120, 66, 14, 19, 3, -7, 11, 
  -26, -41, -22, 8, -76, -32, 68, 1, -62, 4, 29, -39, 30, -14, 7, 44, -8, 17, 67, -29, 
  56, 25, -19, -86, -56, -1, 25, -86, 69, 20, -53, 45, -34, -12, 127, -6, 62, -12, -43, -24, 
  -21, 30, -1, -34, -40, 7, -13, 66, -74, -29, 6, -31, 25, -4, 16, -46, -71, 127, -47, -51, 
  75, 47, 18, 17, -21, 44, -31, 49, 18, 1, -31, 52, 78, 2, 26, 44, 24, 48, -46, -21, 
  20, 12, 33, 30, 0, -46, -56, 61, 11, 35, -44, 25, 14, 28, 16, 14, -19, 1, 66, 50, 
  9, 26, -33, 35, -31, 3, -75, -2, 0, 28, 0, 71, 110, -49, 68, 3, 6, -81, 52, -16, 
  23, 127, -49, -6, -65, -21, 31, 12, -22, 66, -25, 49, -74, -64, -30, 15, -30, 34, -31, -39, 
  23, -40, 70, -1, -37, 3, -24, 17, -8, 13, -5, -24, 22, 17, -13, 10, 11, 40, -27, 5, 
  3, 22, 46, 93, 86, -21, 47, -21, 11, 9, 16, -46, 10, 7, -33, 36, 2, -10, -5, -61, 
  -28, 105, 2, -21, -23, 14, 98, -112, -68, -76, -23, -64, -51, 29, 59, 56, 36, -71, 127, -34, 
  -9, 21, 22, -74, 0, -11, -11, 93, -55, 12, 80, -9, -10, -12, -7, 94, -72, 3, -98, 26, 
  -65, -26, 89, 85, -9, -40, -40, 21, -63, 2, 19, 93, 31, 50, 63, 72, 108, -100, 39, 32, 
  26, 62, 44, 104, 17, -13, 99, 87, 1, 13, -7, 38, 51, -15, 9, 55, -118, -45, 65, -1, 
  -4, -21, -127, -22, -103, -4, -6, -50, 16, -35, -12, 12, -74, -52, -33, 7, 18, 42, 59, 33, 
  52, -7, 22, 4, -52, 5, -68, 0, -81, 2, -88, -41, -117, -32, 0, -77, -55, 19, -14, 4, 
  37, -47, 64, -1, -92, 2, -50, -6, 30, -102, 54, -34, 59, -9, -48, -22, -90, -100, -127, -21, 
  -41, 19, 43, -18, -42, -41, 25, -23, -6, -56, 54, -20, -46, -55, -96, 0, -6, -15, 62, 16, 
  -10, 38, 45, -18, -60, -56, 107, 27, 87, 8, 25, -73, 10, 13, 25, -4, -36, -26, 45, 61, 
  -13, 102, 30, 57, -43, -23, -1, 12, -23, 57, 27, 37, 66, -43, -13, -46, 0, 49, 23, 4, 
  -42, 10, 3, -33, 33, -90, -17, -4, 59, -76, 61, 33, -66, -44, -21, 33, 19, -12, -7, -67, 
  -42, -60, -15, 32, 64, 64, -20, -17, -32, 4, -100, 20, 67, 69, -127, -70, -10, -67, 20, -28, 
  67, 17, -55, -50, 50, -16, 49, 14, -22, 93, 47, 47, -37, 14, -37, -28, -37, 5, -34, -29, 
  -12, 19, 127, -82, -56, 92, -7, -7, 73, 22, 35, 26, 90, -3, 7, -4, -58, -16, -7, 16, 
  1, 44, 12, -52, -28, 13, 58, -37, 68, -36, -19, -30, -4, -29, 4, 26, 46, -35, -13, -60, 
  34, 26, -23, 28, -27, 8, 21, 12, 109, 29, 0, 19, -86, -5, 88, -18, -34, -3, 6, 27, 
  52, 60, -24, -34, 88, 13, -88, 5, -64, -54, -53, 4, -49, -59, 2, 49, -114, -15, 32, -64, 
  45, -73, -3, -5, -80, -7, 90, -74, 26, 127, 2, -74, -118, 13, 44, -19, -43, 34, 36, -48, 
  70, 14, -97, 67, -16, 81, 12, -42, -47, 28, 46, -54, 38, -21, -3, -10, -15, -2, -81, 47, 
  49, 17, -72, 36, -1, -32, 13, 11, -21, -7, 2, 5, -3, -4, 30, 36, -79, -55, -11, 8, 
  86, 30, 11, -2, -27, -69, 36, -7, -42, -36, 19, -25, 56, -69, 6, 2, 25, 5, 75, 127, 
  20, -6, 80, 89, 20, 50, 25, -11, -9, -13, 54, -64, 33, 57, 9, 43, 65, -5, -48, -1, 
  -4, -4, -9, -54, 83, 19, 32, 7, 37, 127, 9, 44, -9, 43, -18, -7, 6, 12, 65, -33, 
  -16, 72, -8, -2, 90, 39, -62, -10, -20, -1, -17, 37, 14, 25, 9, -35, -68, 15, -9, 39, 
  36, 37, 14, 33, 23, -52, 77, -32, -19, -38, 54, 4, 16, -40, -16, 35, 33, 30, 35, 78, 
  -8, -5, 28, 3, 51, 45, 2, 35, -11, 18, 18, -20, -54, 43, -49, 63, 125, -44, 3, 13, 
  31, -84, 26, 26, -78, -87, -52, -30, 53, 54, 29, -63, -73, -94, 115, -53, -51, 31, 72, 97, 
  -101, -25, -8, 72, 69, 63, 102, 87, 27, -127, 126, -70, 86, -17, -2, 7, -81, 41, 52, -30, 
  -24, -49, -11, -17, -51, 19, -49, 52, -119, -54, 45, -40, -8, 60, -12, -38, 53, 10, -11, -3, 
  43, 12, -8, -42, -33, 4, 80, -56, 44, 39, 4, -23, 80, 22, 29, -19, -74, -25, 13, 63, 
  52, 2, -69, -51, -49, 22, -47, 61, 73, 66, -21, 10, 29, 19, -127, -41, 32, -3, 24, -53, 
  8, 17, -30, 0, -4, 107, 5, 8, 34, -4, 10, -28, -48, 5, 20, -45, -34, -16, -31, -28, 
  -1, -35, 94, 2, -127, 96, -28, -17, 36, 70, 64, -55, 57, 127, 46, 79, -82, -2, 28, 79, 
  -30, 52, -77, -22, 55, -3, 49, -5, -32, -71, -35, 94, 68, 33, 6, -12, 100, -14, 6, 8, 
  69, -2, -21, -75, -6, -12, -44, 32, 3, 96, -3, 21, -1, -45, -108, 87, -28, 92, -43, 42, 
  -39, 31, 101, 5, -6, -1, 3, -10, -25, 36, 13, 17, 56, -9, 64, 75, -30, -14, 96, 110, 
  -6, 44, 3, 4, 11, -15, 60, 14, -9, 24, 127, 31, -18, -82, -1, 44, 11, 62, -47, 102, 
  -8, 1, -32, 1, 65, -17, 57, -41, 87, 36, -23, -29, 64, -14, -9, -20, 35, -51, 15, 33, 
  30, 22, -37, 9, -40, -17, 25, -11, -40, 22, 28, 23, -69, 12, -22, -6, 53, 3, -26, -42, 
  45, 13, 12, -6, 84, 16, -2, 63, 2, 33, -35, 14, -6, 37, -52, 59, 33, -127, 25, 19, 
  11, -34, 62, 32, 10, 25, -20, 51, 3, -10, -53, 39, 16, -34, 32, -62, 39, -45, -55, -33, 
  -38, 42, 72, -30, -51, -42, -71, 25, 24, -76, -35, 13, -12, 40, 11, -15, 37, 4, -53, -5, 
  -9, 21, -30, -23, 0, -17, -10, 24, -7, 8, 1, -16, -11, -16, 0, -15, -7, -2, -18, 41, 
  127, -9, 27, -19, -1, 13, 10, 19, 1, 22, 12, -20, -9, -23, 17, 12, 1, -5, -47, 32, 
  -18, -22, 1, 24, -23, -10, -10, -28, -1, -48, -23, 28, -13, -46, -18, -3, -16, -16, -24, 7, 
  -33, -35, -11, 38, -42, -5, -30, -23, -70, 19, 32, 39, -54, -26, -45, 55, -8, -80, -22, -22, 
  23, -27, -20, -20, 26, -13, -32, -54, -34, -1, 19, -9, -19, -31, 127, -14, -12, -43, 67, 4, 
  -33, -26, -6, 7, -82, -32, -66, -5, -13, -10, 0, -5, -9, -8, -18, -29, -32, -28, 50, -24, 
  2, -21, 30, -38, 6, 33, 31, -24, -30, -3, -14, 38, -22, -64, -50, -59, -46, -16, -58, -15, 
  38, -34, -21, 52, 13, 6, 17, -47, 3, 25, -60, 28, 15, 6, -8, -29, 25, 56, -15, 60, 
  47, 49, -48, -31, 40, -50, -17, -15, 87, 127, 11, -49, 41, -79, -35, -36, -21, 42, -32, 27, 
  89, 10, -25, -14, 13, 13, -35, 105, -11, -43, 86, -41, 65, -102, -22, 2, -37, -54, 31, -93, 
  11, 9, 33, -34, -76, 65, 127, -50, -33, 9, 9, -6, 18, 34, -51, 17, 8, -33, 18, -4, 
  -17, -67, -21, 68, -11, -15, 79, -62, 62, 62, -80, -27, 63, -59, 88, 26, -37, 48, -23, 19, 
  19, 51, 63, -72, -36, 52, 18, -17, 0, 0, 0, 0, 0, 0, 0, 0, 0, 0, 0, 0, 
  0, 0, 0, 0, 0, 0, 0, 0, 0, 0, 0, 0, 0, 0, 0, 0, 0, 0, 0, 0, 
  0, 0, 0, 0, 0, 0, 0, 0, 0, 0, 0, 0, 0, 0, 0, 0, 0, 0, 0, 0, 
  0, 0, 0, 0, 0, 0, 0, 0, 0, 0, 0, 0, -13, 125, -87, 66, -127, -58, 47, 19, 
  -31, 27, 4, 38, -13, -3, 77, 0, -63, -6, 31, -30, -37, -30, -46, 36, -79, 18, -23, 44, 
  88, 22, -18, 2, -15, -57, -45, -11, -92, -29, 13, 15, 21, -22, 71, -112, 23, 83, -21, 114, 
  69, -37, -11, 5, 18, -88, 39, 28, 86, -16, 16, 34, -9, 15, 47, -66, 70, 99, 17, -37, 
  -25, 29, 33, -76, -108, -78, 76, -16, -28, 0, 81, 85, 12, -57, -60, -41, -32, -91, 7, -14, 
  86, -14, -83, 82, 22, -58, -46, 27, 104, 25, -10, 20, -18, -72, -22, -42, 30, 33, -9, -85, 
  14, -29, -18, 13, -92, -72, -101, 50, 14, 90, 5, -1, 127, -7, -43, -2, 15, -10, -17, 106, 
  -10, -63, -30, -23, -76, -30, -20, 0, 28, -9, -52, 38, 127, 60, 43, -44, 3, 31, -30, 16, 
  -24, -6, -45, 93, 8, -7, -88, 38, -13, -60, -15, -3, -15, -52, -31, 52, -50, 73, -83, -59, 
  8, -34, 24, 20, -121, 25, 4, -20, 0, -25, 40, -11, 21, -38, 8, 14, 83, 78, 4, 9, 
  -8, -94, 14, -24, -20, 42, -49, -23, -27, -21, -21, -1, -3, -42, -25, 2, 100, -34, -10, -74, 
  -43, -72, 84, -95, -17, 67, 59, 60, -20, 8, 73, -16, 18, 45, 74, -41, 16, 28, -34, -43, 
  -54, 59, -67, 45, 24, 55, -127, 52, 106, -34, -31, -15, 17, 20, 34, 29, 94, -11, -49, -5, 
  -104, -77, 14, -26, 101, 16, -78, -21, 24, -37, -8, -36, 15, 11, -12, 5, -9, -44, 27, -13, 
  -54, 13, -1, -30, 2, -33, 53, 64, 22, -14, -23, 27, 20, 31, -17, -20, -8, 68, -3, 15, 
  27, 29, 39, 1, 2, -15, 127, -27, 23, 24, -20, -31, -62, -10, 43, -25, -3, 2, -27, 2, 
  -21, -18, -54, -2, -40, 77, 38, -5, 22, -32, -28, 14, -40, -22, 11, 4, 18, -21, 3, 24, 
  -48, 17, -20, 23, 64, 37, -7, -50, 28, -49, 127, -84, -8, 58, 82, -28, 20, -70, 15, 16, 
  18, -67, 39, 6, -21, -37, 102, -4, -40, -4, -70, -3, -55, -20, -26, -16, 26, -1, -21, 121, 
  25, -2, 98, -14, -20, -25, -9, 37, -28, 53, -64, -26, 28, -16, 26, -71, 90, 106, -34, -86, 
  -37, -8, -23, -16, -27, -62, 122, 41, -3, 1, 127, -16, -16, -56, -13, -29, 15, -28, -24, 19, 
  -13, -15, 75, 72, -8, -104, 7, -2, 34, -8, 40, -25, 54, 21, -95, -52, -11, 60, 29, 21, 
  -37, -55, 89, 47, -32, 27, 107, -63, 79, 30, 33, 40, 41, -2, -2, 12, -15, -47, 1, 31, 
  -36, 46, -3, -69, 40, 38, 21, 18, 74, 67, -90, 50, 13, 28, 41, 18, 12, 46, -50, -5, 
  -11, -67, -68, 11, -67, 34, -33, -6, 53, 21, -1, 55, 4, -15, 101, 90, -64, 102, 96, -9, 
  76, 39, -67, -65, 3, 90, 14, -34, -11, -14, -23, -51, -93, 44, 19, -27, -127, 46, 33, 3, 
  -16, -55, 8, 45, -54, 69, -12, -2, -8, 1, -18, -1, 90, 1, 84, 14, 1, -19, -42, 51, 
  76, 127, 126, -25, -61, 46, 69, 63, -11, -21, 71, 22, 12, -87, 74, -36, 19, 40, -70, 58, 
  -41, -10, 18, 49, 84, -18, -55, -62, -91, 43, -9, 53, -5, -21, -19, -81, -47, 13, 18, 47, 
  -89, 7, -16, 74, 59, -20, -43, -112, -20, -40, -10, 84, 47, 4, 33, 42, 57, -102, -3, -7, 
  -55, -32, -66, -69, 17, 16, 17, -36, 23, 50, 34, -23, -55, -42, -1, 58, -58, 73, 25, -16, 
  -23, 5, -11, -17, -61, -2, 127, 18, 25, 10, -8, -20, 60, 36, -24, -41, 21, -35, -39, -15, 
  41, -20, -34, -5, -38, 35, -9, -55, -73, 21, -6, -8, 45, -17, -97, 50, 0, 29, -27, 30, 
  -8, 33, -9, -23, -51, -4, 4, -43, 19, 15, -12, 36, 127, 29, -12, 36, 3, 61, -33, 8, 
  2, 77, -6, -11, -17, -2, -41, -15, 65, -31, 18, 60, -66, -4, 8, 11, -4, -32, -2, 71, 
  -65, 2, -16, 26, -40, -12, 32, -27, 31, -25, -24, 7, 124, -15, -11, -57, 77, 15, -48, -57, 
  -67, 58, 67, 111, -35, 31, -97, -66, -34, 41, -19, 65, -17, -10, 22, 57, 115, 9, -20, 26, 
  55, -17, -56, -89, -2, -87, 38, -9, -31, -7, -11, 8, -127, -16, -78, 25, 19, 5, -24, -23, 
  46, -45, -7, -21, 80, 25, -49, -75, 2, -29, 77, -10, 48, -38, -84, 29, -27, -44, 22, 43, 
  2, -77, -34, 15, 77, 63, 36, 58, 61, 35, -29, -44, 115, -3, -18, -3, 127, 68, -2, 94, 
  18, 16, -95, 102, -35, 4, -5, 9, 21, 37, 81, 7, 44, -23, -77, 80, -46, 12, -19, -10, 
  4, 1, 56, -19, -88, 57, 36, -93, -24, -39, -62, 53, -5, -9, -56, 19, 4, -7, 56, 11, 
  -23, -9, 33, 10, 32, 2, 52, -66, 66, 76, -31, 44, -62, -22, 92, -2, 72, 49, 20, 30, 
  94, -122, -23, 20, 13, -24, -127, 57, 28, 127, -25, -24, -44, -20, -97, 32, 28, -20, -98, 1, 
  69, 81, -118, 82, -49, 12, 69, -38, -85, -45, -75, 89, 1, 59, 106, 37, 77, -33, -57, -47, 
  30, 81, -21, 14, 61, 68, -35, -39, 103, 11, 41, 4, 57, -19, -26, 59, -84, -63, -25, 80, 
  70, -59, 54, 44, 5, -107, -70, 18, -64, -77, -25, -21, 9, 3, 61, -18, 44, -119, 18, 51, 
  17, -4, -3, 20, 74, -60, -12, 42, -127, 87, -27, 106, -76, -95, -43, 62, -60, 9, -78, 2, 
  6, -64, 8, -55, 46, -28, -30, 34, -13, 34, 70, 34, 28, -79, 2, 9, 19, 24, -7, -46, 
  18, 6, 9, 24, 31, 36, 1, 5, -38, 8, -10, 77, 10, 10, 68, 17, 20, -4, -72, -38, 
  -16, -5, 52, 50, 46, 8, -12, 127, -30, -12, 73, 46, -19, 38, -2, 85, 26, -16, 26, -13, 
  8, 42, -11, 3, -99, -47, 42, 34, 27, -28, -57, 14, -7, -28, -36, 31
};

#if HAS_BIAS
alignas(16) static NS_PUT_IN_TCM int32_t conv_10_bias[] = {
  895, -14621, 3587, 1073741760, 5272, -2098, 637, -2477, 10261, -16174, -3386, 2551, 1073741824, -1073741824, -9162, 361, 2254, -419, 1171, 1449, 
  -12488, -2305, -4290, -10244, 2962, -4352, -9497, 47, 190, -411, -9975, 21861, 8838, 5818, -2948, 3860, 500, -14437, 9963, -728, 
  -3020, -11482, -1176, -2745, 9377, 3814, 580, -1073741824, 10600, -10374, 9637, 1934, -1016, 1180, -459, -3738, -2658, 10153, -2623, 9812, 
  -1637, 986, 2244, -185
};
#else
static NS_PUT_IN_TCM int32_t *conv_10_bias = NULL;
#endif


alignas(16) static NS_PUT_IN_TCM int8_t conv_10_scratch_buffer[SCRATCH_BUFFER_SIZE];

static cmsis_nn_context conv_10_context = {
    .buf = conv_10_scratch_buffer,
    .size = sizeof(conv_10_scratch_buffer),
};

const cmsis_nn_per_channel_quant_params conv_10_quant_params = {
    .multiplier = (int32_t*)conv_10_multiplier,
    .shift = (int32_t*)conv_10_shift,
};


const cmsis_nn_conv_params conv_10_conv_params = {
    .input_offset = -conv_10_input_zero_point,
    .output_offset = conv_10_output_zero_point,
    .stride.w = 1,
    .stride.h = 1,
    .padding.w = 0,
    .padding.h = 0,
    .dilation.w = 1,
    .dilation.h = 1,
    .activation.min = -128,
    .activation.max = 127,
};

int32_t aot_conv_10_init(void)
{
    return 0;
}

int32_t aot_conv_10_run(const int8_t* __restrict input, int8_t* __restrict output)
{

    return arm_convolve_wrapper_s8(
        &conv_10_context,
        &conv_10_conv_params,
        &conv_10_quant_params,
        &conv_10_input_dims,
        input,
        &conv_10_filter_dims,
        conv_10_weights,
        &conv_10_bias_dims,
        conv_10_bias,
        &conv_10_output_dims,
        output
    );

}
