/******************************************************************************
 * @file        aot_conv_2.c
 * @brief       Autogenerated AOT CONV_2D kernel
 * @details     This file was generated by HeliosAOT v0.2.2 on 2025-06-10.
 *   This kernel represents node #2 in the corresponding graph.
 *
 * @date        2025-06-10
 *
 * @copyright
 *   © 2025 Ambiq. All rights reserved.
 *
 *   This generated C module is licensed for use **only** on Ambiq hardware
 *   incorporating Ambiq’s sub-threshold power optimized technology.
 *   Any other use is strictly prohibited.
 *
 *   See “LICENSE.txt” at the root of this distribution for full terms.
 *
 * @note        Do not edit this file—any changes will be overwritten.
 ******************************************************************************/

#include <stdalign.h>
#include "ns_ambiqsuite_harness.h"
#include "arm_nnfunctions.h"
#include "arm_nnsupportfunctions.h"
#include "aot_conv_2.h"

#if defined(ARM_MATH_MVEI)
#define SCRATCH_BUFFER_SIZE 0
#define WEIGHT_SUM_BUFFER_SIZE 256
#elif defined(ARM_MATH_DSP)
#define SCRATCH_BUFFER_SIZE 256
#define WEIGHT_SUM_BUFFER_SIZE 0
#else
#define SCRATCH_BUFFER_SIZE 0
#define WEIGHT_SUM_BUFFER_SIZE 0
#endif

#define HAS_BIAS 1

// Input dimensions: input shape is [1, H_IN, W_IN, C_IN]
static const cmsis_nn_dims conv_2_input_dims = { .n = 1, .h = 25, .w = 5, .c = 64 };

// Filter dimensions: weights shape is [C_OUT, H_FILT, W_FILT, C_IN].
static const cmsis_nn_dims conv_2_filter_dims = { .n =  64, .h = 1, .w = 1, .c = 64 };

// Bias dimensions: bias shape is [1, 1, 1, C_OUT].
static const cmsis_nn_dims conv_2_bias_dims = { .n = 1, .h = 1, .w = 1, .c = 64 };

// Output dimensions: output shape is [1, H_OUT, W_OUT, C_OUT].
static const cmsis_nn_dims conv_2_output_dims = { .n = 1, .h = 25, .w = 5, .c = 64 };

// Quantization parameters (per-channel quantization)
static const int32_t conv_2_multiplier[64] = {
  1753010432, 1400798208, 1134457344, 1758672256, 1403607552, 1820785024, 1513526272, 1246474112, 1155777280, 1479158784, 1270449792, 1121960960, 1578196352, 1171900288, 1238656512, 2129490304, 1859006208, 1150855936, 1406136192, 1096281856, 
  1179667584, 1135417856, 1793992448, 1262616192, 2106404736, 1285768576, 1828269824, 1969992576, 2095390720, 1276555520, 1406488960, 1388277760, 1109336192, 2041424000, 1524387456, 1247844608, 1254068608, 1466156416, 1436942848, 1083956736, 
  1563114368, 1409961088, 1165600768, 1500316672, 1312999936, 1194430080, 1485904640, 1348061568, 1742367104, 1178477440, 1161423616, 2135869056, 2020513280, 1409196032, 1424482944, 1335577728, 1530524288, 1106321280, 1074189568, 1740004096, 
  1291847552, 1929897344, 1205240448, 1231837568
};
static const int32_t conv_2_shift[64] = {
  -8, -7, -7, -8, -7, -8, -8, -7, -7, -7, -7, -7, -7, -7, -7, -8, -8, -7, -7, -7, 
  -7, -7, -7, -7, -8, -7, -8, -8, -8, -7, -7, -7, -7, -8, -7, -7, -7, -7, -7, -7, 
  -7, -7, -7, -7, -7, -7, -8, -7, -8, -7, -7, -8, -8, -7, -7, -7, -8, -7, -7, -8, 
  -7, -8, -7, -7
};

// Offsets and activation parameters.
static const int32_t conv_2_input_zero_point = -128;
static const int32_t conv_2_output_zero_point = -128;

// Weight and bias data.
alignas(16) static NS_PUT_IN_TCM int8_t conv_2_weights[] = {
  53, -79, 3, 2, -34, 78, -30, 0, -65, -18, -1, 9, -10, 90, 23, -11, -52, -43, 83, -14, 
  25, 9, -60, -102, 24, 49, -11, -46, 28, -50, -96, 18, 39, 13, -66, 83, 56, 110, -2, 37, 
  -36, 25, -32, 14, -40, -5, -55, -38, -60, -53, -97, 66, 74, -8, 40, 22, -127, 8, -100, 51, 
  -95, -26, -22, -43, -14, -6, -3, 44, 5, -39, -85, -34, 36, -52, -17, 67, -10, -16, -35, 92, 
  1, 30, -59, 4, -90, 71, 28, 22, 63, -72, 51, -61, 72, 11, 18, 7, 34, -30, 78, 67, 
  18, 69, 13, 127, 34, -37, 77, -2, 67, -42, 34, 113, -27, -52, 9, -77, -43, -46, 36, -22, 
  55, 35, 28, -22, 95, -99, 61, 9, 38, 45, 38, -120, 13, -40, 29, -93, -62, 29, 53, -36, 
  67, -39, 41, -87, 76, -5, -39, 62, 92, -57, -4, -41, -7, -64, -100, 10, 29, -22, 69, 10, 
  -42, -81, 26, 85, 33, -127, 28, -34, -38, -67, -33, 6, 26, 4, 41, -1, -22, 90, 9, 88, 
  -66, -92, 8, 0, -1, -52, 12, -8, 58, 1, 6, 76, -10, -2, 60, 20, 34, -14, 3, 126, 
  25, 43, 34, -21, -22, -82, -47, -81, -47, -61, -73, -61, 127, -75, 7, -108, -30, 50, -101, -12, 
  44, -51, 95, 93, -24, -118, 12, -24, 67, -66, -76, 4, 10, 56, 3, 7, 19, 5, 50, 97, 
  -9, -75, -30, -44, -27, 67, -33, -8, -117, -107, -87, -38, 15, 27, 125, 46, 127, -14, 49, -70, 
  25, 81, -35, -98, -67, 81, 10, -11, 14, -16, 27, -18, 36, -77, -77, 45, -60, -22, -57, 20, 
  -44, 65, -2, 32, -23, 14, -15, 32, -20, 106, -98, 31, 36, 10, -31, -41, -2, -111, 6, -43, 
  -17, -53, 59, -40, -5, -8, 38, -83, -30, 21, -81, -66, -14, 4, -39, 45, -38, -46, -72, 33, 
  -29, 55, 20, 72, -106, -15, 16, 43, -106, -44, -99, 1, -8, -13, -46, 22, -84, -51, -43, -51, 
  34, -57, -13, -82, -35, 8, -43, -64, -75, -44, -91, 62, 75, -89, -75, -21, 31, 121, -23, 22, 
  -11, -37, -61, -2, 73, -105, 47, 96, -4, -37, 127, -108, -10, 33, -17, -69, -1, -105, -12, -56, 
  76, 19, -120, 48, 22, -14, 77, -12, 28, 30, 0, -81, 76, 94, 20, -37, 89, -3, 91, -10, 
  80, -33, -5, 75, -3, 5, -22, 98, 28, 36, 30, 42, 13, 105, 11, 66, 91, 32, 18, 1, 
  -29, 75, 15, -31, 95, -73, -102, 20, 47, 94, 18, -15, 64, 22, 15, -14, 18, 25, 54, 29, 
  -18, -74, -34, -3, 127, -71, -44, 7, 19, -81, 3, -86, 14, 30, -1, -80, 5, -89, 16, 23, 
  82, -31, 1, -30, -13, -116, -30, -21, -53, 25, 46, -22, -36, 43, -74, 127, -12, 26, -24, -2, 
  19, -70, 21, 47, 54, 67, -61, -56, -10, -64, -48, 46, -45, 65, -14, -49, -21, -23, -30, 11, 
  31, 79, -25, 15, -49, -15, -45, -19, -27, -1, 14, 0, -85, 79, 8, -4, 48, 71, 6, 55, 
  -42, 1, 6, -121, 64, 56, -40, -1, -44, -78, -62, -3, -58, -127, 55, 0, 25, -95, 1, 15, 
  73, -21, -43, -33, 33, -41, 57, -10, 19, 1, 82, 116, 21, -19, -90, -1, -12, 15, 94, 21, 
  69, 1, 88, 46, 12, -12, -74, -17, 33, -51, 23, -48, -8, -26, 4, 18, 12, 17, -66, 15, 
  27, -38, -40, 76, 11, 45, -32, 0, -38, -39, -27, 14, 12, 12, 49, -28, 33, 14, 17, 57, 
  -79, -27, 22, -21, -35, 78, 4, -51, -16, 3, 20, -58, 55, -33, 31, -66, -45, -27, 76, -9, 
  -69, 7, -127, 5, 9, 32, 2, -5, 48, 12, -40, 3, -104, 35, -6, 64, -16, 31, 54, -33, 
  -49, -81, 78, -114, -5, 18, -8, 14, -6, -39, 46, -11, -4, 15, -64, 51, -84, -43, 21, -10, 
  -17, -24, 68, -50, -31, -72, -56, -26, 50, 66, 11, -127, -6, 34, -4, -9, -70, -20, 21, 40, 
  47, 31, 44, -12, 18, 2, 56, -36, 56, 63, 44, 24, -82, 48, -40, -11, 0, -78, 37, -24, 
  -31, -24, 69, -37, 62, -20, -116, 30, 94, -3, 51, 127, 19, 58, 8, 11, -14, -61, -5, -38, 
  -47, -20, 90, 58, -53, 61, 10, -1, -55, -20, 24, 38, -9, 53, -32, 71, -11, -67, -110, 53, 
  7, -11, -72, -74, -42, -69, -28, -60, -73, 50, -11, -18, -75, -45, -3, 34, 104, -69, 29, 7, 
  -59, -32, -74, 28, -126, 56, -63, 83, -16, -36, -69, 13, 25, -50, 61, 6, -6, -33, 3, 37, 
  -9, -51, -64, -2, 20, -12, -8, 62, -13, -60, -13, 72, -35, -48, -22, 50, -7, 32, -56, 84, 
  -4, 22, 47, 8, 89, -127, 50, -104, -25, -21, -13, 33, -12, 43, -93, 31, 58, 3, 25, -48, 
  -29, -17, -18, 42, -36, -49, 12, -114, 14, -41, -22, 14, -46, -67, 27, 59, -1, 15, 37, -32, 
  -21, -5, 63, 15, 59, -63, -43, 21, -127, -30, 24, 25, 25, 44, 16, -73, 18, -19, 53, -36, 
  -18, 15, 39, 41, 15, -97, -30, -36, -11, -48, -59, 30, 30, 39, 67, 13, -60, 0, 84, 29, 
  8, -33, -6, 57, 60, 0, 12, 68, 20, -30, -40, 31, 0, -29, -46, -67, -16, -2, -29, -7, 
  30, -37, -11, 40, -20, -41, -44, 9, 21, -127, -81, -32, -18, -7, 10, -2, 2, 0, 27, -24, 
  53, -23, -17, 20, -75, -26, 15, 13, -36, -18, 40, -49, -11, -58, 31, -64, -12, -4, -34, -2, 
  -4, -23, -43, 7, 22, 35, 33, 45, -52, -3, -39, 15, -9, -79, -11, -61, 20, 1, -14, 20, 
  -112, 10, 17, -109, 17, 63, 11, -28, 45, -115, 48, -35, -44, -55, 0, 7, -46, 75, 38, -38, 
  126, 1, -66, -5, -44, 35, -12, 70, -3, -33, -78, -52, -41, -11, 23, 38, 64, -84, 41, 14, 
  30, 46, 127, -15, 35, 70, 28, -19, -102, 26, -76, -64, 15, 64, -10, -23, -60, 56, -11, -1, 
  33, -16, -88, -40, -94, -23, -42, 7, -77, -40, -40, -55, -3, 58, 68, 28, -14, -53, -62, -37, 
  -48, 5, 39, 45, 28, 29, -11, -26, 26, -80, 19, -17, 97, 28, -30, 55, -95, -36, 99, 28, 
  29, 7, 27, 49, -10, 74, 29, -39, 35, 20, 34, 68, 26, 31, -33, -20, 4, 71, -127, -47, 
  73, -50, -31, -77, 17, -49, -14, 17, -38, -114, -24, -59, 6, 24, 52, 96, 33, -61, 48, -2, 
  -80, -41, -60, -25, -100, 70, 57, -78, 20, 93, -4, -81, -98, 18, 48, -21, -38, 24, -23, -36, 
  20, -38, 25, -9, -5, -86, 62, 38, -56, -44, 86, 25, 26, 127, -4, 66, 10, -13, 48, -55, 
  31, 54, -58, 15, -92, 10, -17, -17, 71, 9, -44, 8, 0, -52, -59, -62, -95, -6, 12, -71, 
  59, 36, -34, -13, -30, 23, 50, 8, -37, -52, 6, 74, -59, 90, -23, 22, -23, 15, -10, -62, 
  -37, -58, -127, 47, -3, 28, 62, -39, 4, -5, -39, -62, -57, -6, -44, -29, -8, -28, -76, -1, 
  -10, -21, -25, 13, 11, 11, 34, -54, 0, -72, -31, -37, -23, 7, 21, -25, 17, -19, 61, -22, 
  -13, -48, 38, -73, 93, -68, -30, 6, -29, -36, 17, 57, 21, 48, 26, -77, 12, 0, -1, 71, 
  0, 37, 75, 24, 15, 27, 112, -19, 86, -127, 27, -60, 57, 55, -87, -15, 46, -9, -46, -47, 
  -51, -11, -82, -1, 11, -12, 7, 19, -17, -11, 52, -71, -89, 63, -60, 79, -18, -67, 38, 3, 
  25, -69, -101, -109, 0, -70, 35, -113, -48, -35, 30, 66, 27, -30, -33, -98, 81, -15, 48, 77, 
  -10, 62, -7, 78, -11, -52, 29, -24, -58, 58, -127, 76, 5, 12, 35, -3, -18, -38, -75, 49, 
  -38, 44, -1, 2, 58, 10, -102, 30, 8, -7, 39, -100, 69, 27, -48, -11, 85, 34, 76, -100, 
  49, -58, -77, 20, -26, 29, -38, 57, -5, -40, 40, -2, -73, -8, -29, 32, 15, -68, -46, -62, 
  -7, 56, -90, 8, -33, 2, -82, -45, 113, -88, 15, -14, -33, -127, 1, -21, 12, 4, -24, 5, 
  -42, -50, 40, -32, -121, -55, 35, -10, -43, -71, -59, -8, -45, 1, -74, -8, 16, 61, 30, 106, 
  25, 29, 4, -74, -10, 103, -9, -100, -33, -70, -4, 41, 26, -19, 27, 1, -6, -1, 0, -24, 
  26, -6, 49, -127, -8, 0, -7, -10, 17, -67, -46, -32, 49, -18, 20, -8, 37, 42, 22, 28, 
  0, 13, 0, 27, 43, 3, 17, -34, -25, -14, 45, 22, -38, -19, -37, -24, 12, -10, -93, -15, 
  16, -39, 10, -29, -71, 1, -24, -12, -59, -62, 25, 50, -21, 8, 40, 8, 49, -70, -42, 83, 
  49, -40, -34, 50, 28, 20, -105, 47, 52, 77, 29, 18, -11, -27, -39, -38, -1, 38, 65, 29, 
  100, -5, 17, 30, -15, -15, 57, -44, 8, 118, -72, -24, 86, -24, -15, -84, 95, -15, -31, -3, 
  44, -45, 34, 127, -21, 54, 7, 38, 3, -27, 4, 0, -125, 53, 68, 38, -47, 2, -3, 4, 
  -25, 29, -49, -33, -60, 16, 36, -37, -49, -119, -59, -13, -98, -18, 35, 46, 43, -48, -28, -16, 
  12, 55, 43, -35, 62, 48, -5, 24, -127, 29, -10, -23, -14, -60, 40, -4, 13, 77, -13, 30, 
  -103, -30, 27, 45, -58, -26, -13, -106, -6, 66, -7, 15, 35, -11, 45, -41, 13, -69, -3, -74, 
  46, -7, -24, -49, -13, 31, -37, -88, 10, -53, -14, -26, 17, -8, 69, 9, 47, 1, -23, -127, 
  20, 36, 18, 60, 24, 18, -24, 70, -31, -30, -9, -31, -49, -43, 32, -37, -24, -16, 37, 27, 
  -29, -15, 32, 80, -4, -46, -24, -93, -16, 70, 32, 39, -18, 51, -16, 72, -104, 62, -46, -51, 
  -29, 51, 19, -34, 58, 4, 41, -110, -29, 5, 43, 3, -17, -5, -34, -44, 38, -36, 87, 0, 
  -8, -41, -110, 29, -127, 67, -21, 33, -57, 47, -51, 19, 64, -5, -17, -28, -74, -57, -61, 80, 
  36, -26, -20, 48, -53, -113, 0, 33, -25, -7, 6, 62, 6, -32, -12, -19, -4, 9, -26, -34, 
  -43, -77, -96, -9, -68, 32, 68, -54, 14, 1, 93, -12, 90, 44, -93, 107, 79, 27, -66, 57, 
  45, -43, 18, 85, 64, 64, 66, -75, -15, -24, -16, -12, 51, -84, 53, 33, -13, 41, 92, -23, 
  24, 27, 96, -56, -20, 37, 61, -13, 95, 91, 7, -12, -69, -17, -32, -127, -52, -45, 15, -4, 
  42, -22, 32, 52, -105, 66, -41, 17, -8, -31, 10, -32, 74, -50, -40, -51, 56, -20, 58, 28, 
  -127, 9, -85, -8, 60, -31, -76, -99, 69, 0, 75, 52, 10, -17, -20, 58, -94, -84, -2, -29, 
  42, 33, -43, 3, -35, 69, -74, -15, 75, -48, 0, -25, -47, 30, -4, -39, 54, 49, 80, 102, 
  1, -71, 76, 54, -27, -70, -85, 22, 60, 52, -13, 4, -12, -51, -28, 73, 23, 39, 5, 59, 
  85, 5, -62, -78, 29, -41, -11, 33, -44, -50, 31, 41, -60, 45, -90, 52, -28, 30, -59, -16, 
  110, -52, -50, -27, -25, -21, -24, -22, -17, 7, 12, 47, -71, -127, -51, 63, 56, 5, 18, 78, 
  -23, -26, 3, 126, 50, -51, 16, -27, 9, -30, -57, 75, 93, 49, 93, -14, 52, -59, 12, -48, 
  -17, -27, -51, -16, 50, 38, -112, -68, 9, 53, -65, 127, -13, -74, 10, 82, -54, 24, -4, -30, 
  -22, 97, -41, -1, 3, 63, -4, 27, 3, -8, 74, 22, 49, 68, 24, -18, -12, 71, -42, -65, 
  -6, -26, -29, -48, 54, -46, -64, -40, -7, -71, -49, -71, -12, -14, -26, 3, 46, 50, 25, 17, 
  14, -26, 28, 63, 16, -5, -27, 5, 127, -2, -39, -70, 8, -43, -12, 49, -29, 95, -53, -46, 
  16, 64, -10, -43, -1, 42, 30, -20, 24, -38, 71, 39, -8, -36, -71, 62, 19, 16, 0, -14, 
  -21, 33, 50, -19, 24, -47, 93, 40, -6, -6, -57, -119, -16, -69, 13, -2, -33, 25, 78, 12, 
  76, 7, 48, 20, -31, 3, -14, -31, 2, 12, 40, -65, -28, -2, -22, 39, -70, 10, -49, 10, 
  -5, 11, -42, 30, -89, 29, -41, -110, -42, -54, -22, -64, -5, -79, 33, -15, -18, -76, 11, -73, 
  -4, 42, -26, -35, -5, 49, 3, 46, 27, 0, 34, -6, 18, -71, 52, -19, -47, 49, -43, 17, 
  -8, -65, 24, 10, -127, 29, -24, 27, -6, 44, 44, -24, 32, 26, 46, -31, 63, 96, 52, -44, 
  -18, 93, 66, -44, 29, -109, -23, 50, -125, 49, 67, 41, 36, 38, 31, -35, -9, -34, -42, 9, 
  20, 37, -67, -8, -25, -25, -60, -9, -60, -63, 119, 10, -107, -39, 100, 46, 22, 23, 34, -127, 
  77, 30, 103, 8, -69, -30, -90, 43, 77, 51, 86, -100, 49, -39, -106, 7, -10, 10, -54, -11, 
  127, 22, 4, 64, 28, -50, -55, 4, 17, -31, -51, -11, -73, 34, 28, -25, 37, -48, 50, -23, 
  -55, 28, -5, 15, -10, 42, 62, 43, -68, -27, 37, -33, -96, -65, 0, -45, 0, -48, -18, -11, 
  -95, -50, 22, 38, 15, 74, -43, 35, -69, 65, 69, -4, -19, -24, 2, -22, -36, 30, 25, 27, 
  -30, -64, 7, -6, -7, -62, -50, -84, -127, -2, -54, -115, 6, 33, -65, -54, -22, -14, -45, -4, 
  65, -46, -10, 0, 4, 57, -66, -119, -35, 30, -69, -31, 32, -32, 32, 51, 51, -29, -17, 85, 
  -19, 0, -43, 12, 13, 0, 34, 119, 18, 8, -72, 40, -11, -54, -81, 36, 9, 41, -20, 42, 
  -27, -52, 31, -27, 25, 21, -11, 51, -32, 11, -13, -9, -63, -37, 0, -16, -53, 95, 17, -63, 
  79, -32, -59, -55, -99, -85, -74, 59, -26, 10, 34, 11, -4, -26, -5, -23, 31, -16, -44, 3, 
  45, 73, -60, -59, -61, 52, -80, -80, -29, -68, 31, -43, -37, -42, -52, 13, 115, -35, 77, -45, 
  1, 21, -36, 10, -127, -57, 4, -43, 41, 3, 17, 36, -22, 24, -81, -9, 70, 25, 20, 30, 
  70, -14, -13, -27, -8, 8, -7, 82, 21, 1, -44, -7, -43, -71, 86, -10, 5, -19, 15, 93, 
  56, 26, 61, -70, 53, 15, -57, -51, 40, 82, 38, -48, 44, -22, 10, -31, -31, -35, -43, -27, 
  23, -101, -24, -57, -38, 0, 64, -42, 15, -34, -127, 2, 90, -22, 47, -19, 90, 24, -3, -27, 
  23, 49, 9, 41, 74, -50, 48, -6, -17, -83, -4, 30, -77, 63, -91, 37, 66, -11, -35, -8, 
  -19, -127, -62, -3, -43, -68, -52, -51, 57, 0, 49, 26, 22, -7, -25, -29, 6, 7, -85, -74, 
  8, -28, 13, 1, -39, 8, -29, -19, 2, -33, -34, 58, -11, 39, -10, 3, 48, 42, 44, 31, 
  -5, -20, 8, 21, 26, 42, 68, -52, 24, 103, 39, -18, 18, -30, 57, -60, 68, 7, 87, -17, 
  -5, 87, -66, -32, 73, -26, 28, -10, 2, 32, 99, 127, 9, 29, -38, -7, 53, 71, 51, 38, 
  -38, 125, -43, 31, -39, -21, 32, -66, -43, 109, 58, -21, 0, 9, -41, 53, -38, -3, -67, -97, 
  -57, 64, -19, -29, 7, -33, -52, 0, 5, -5, 27, -6, -79, 16, -15, 37, 29, 57, -37, 27, 
  16, 76, -112, 16, 2, 8, 37, -38, -88, -24, 25, -2, -35, 57, 27, 17, -41, -29, -30, 68, 
  40, -14, -3, 26, -12, -18, -109, -15, -23, -49, -127, -15, 20, 42, -30, 86, 12, 55, -25, 80, 
  -10, -95, 10, -19, -62, -2, 42, -7, 8, 17, -45, 32, -38, -82, 4, 25, 26, 10, 14, -47, 
  27, 2, -43, 25, 12, -82, -8, -20, 102, 16, -67, 95, -66, -65, -62, 68, -31, -27, 76, -2, 
  29, -73, -11, 45, -31, -79, -24, 127, -45, 18, -7, 31, -24, 2, -7, 111, -25, 59, 45, 69, 
  16, 16, 47, 94, 0, -56, 67, -28, 15, -28, 4, 127, -55, 37, 30, -48, 15, 71, -34, -37, 
  -3, -68, 112, -64, -48, -72, 3, 108, 14, -19, -85, 24, 10, 5, -82, 61, 6, 4, -12, 63, 
  -29, 72, -104, 8, 3, -56, -12, -38, -111, -31, -14, 85, -33, -93, -19, 65, 34, -73, -85, 97, 
  77, 1, -55, 69, -31, 45, -112, -50, -55, -69, 7, -50, -27, 58, 12, 20, -31, 5, 3, -69, 
  51, -15, 20, 48, -2, -57, 25, -38, -33, 1, 69, 20, -24, -48, 22, 18, -58, -82, -20, 39, 
  44, 30, 35, 13, -22, 1, -24, 82, -15, -20, 3, -16, 9, 104, 69, 21, 14, 45, 37, -78, 
  20, 30, 12, 59, 40, 1, -6, -13, 21, -4, 71, -127, -26, -49, -20, 31, -32, -57, -37, -8, 
  -7, -32, -30, -70, 83, 58, 71, 32, -63, -14, 17, -117, -28, -41, -92, -33, 20, 3, -85, 127, 
  28, -39, 24, -31, 3, -17, 48, 30, -95, -7, 7, 38, -39, -20, -65, 42, -88, -7, -22, 45, 
  7, 38, -63, 20, 56, -47, -1, -84, -45, -42, 7, 34, 70, 110, -5, 111, 21, 48, -1, -27, 
  -56, 16, -36, 37, -102, -17, 44, -15, 28, -12, -69, -10, 39, -114, -19, 13, -127, -28, 38, 79, 
  -12, -28, 47, 14, -90, -19, 71, -92, 52, -45, -33, 41, 27, -20, -15, -50, -78, 6, -94, 94, 
  34, -40, 7, -30, 70, 18, -68, 44, -43, -97, 77, -34, 90, -33, -5, 102, 25, -21, -26, 21, 
  123, -10, 70, -44, 35, 104, 71, -28, -5, 5, 25, -70, -118, 13, -40, 22, -77, -126, -82, 73, 
  -75, 57, 39, -5, 33, -24, 97, -91, -70, -48, -24, -48, -64, 30, -7, 21, -79, -22, -56, -51, 
  -26, -51, -46, -57, 59, 70, -19, -22, -14, -10, -18, 62, 60, 47, 68, 55, -27, -42, -127, 21, 
  30, -54, 60, 4, 15, 15, 49, -4, 25, -48, 85, -23, -22, -41, 43, -127, 86, 38, 65, -65, 
  -11, -39, 2, 19, -20, -19, 32, -35, 0, 4, 47, 1, -3, 18, 45, 31, 22, 1, 44, -47, 
  -30, -103, -62, -58, 49, -68, 95, 87, 75, 68, 51, -22, 23, 64, 89, 43, -37, 38, 39, 19, 
  -5, 47, -7, -9, -71, 40, -49, -28, 27, -62, 25, 23, 56, -59, -47, 75, -101, -9, -17, 43, 
  -28, 51, 59, 33, -22, -86, -35, 55, -31, -31, 109, -6, 19, 120, -29, 14, 38, -26, -16, -62, 
  -84, 45, 32, -53, -82, 70, -26, -46, 127, -88, -107, -17, 33, 43, 38, -112, 59, 71, -42, -61, 
  -17, -101, 77, -43, -35, -98, 20, 91, -56, -105, -23, 75, 38, 13, 68, 101, 55, 28, 1, -4, 
  34, 18, -96, 31, 34, -124, -25, -4, -101, -42, -64, 8, 9, 48, 0, 4, 53, -103, 88, 39, 
  -18, -98, 79, 35, -40, 102, 63, 37, 46, -67, 21, 43, -39, -47, 87, -73, -30, 34, 43, -21, 
  66, -91, -71, -127, 88, 72, -1, 4, -43, -36, -50, -59, -23, 10, 85, 52, -84, -46, 29, -7, 
  -7, -24, 53, -37, -77, 29, -28, -23, -45, 27, 17, 41, -50, 14, 53, 3, 0, -113, -74, 12, 
  3, 43, 28, -72, -25, -21, -30, -31, 8, 9, 56, -66, -22, -45, 3, 7, -1, 39, -41, -33, 
  42, 89, 45, -127, -18, -59, 69, 7, 16, 35, -34, -33, -34, -84, -75, -35, -61, 49, 19, 82, 
  -21, 55, 51, -45, -54, 12, -108, -96, -40, 0, 7, -67, -43, 18, -46, -10, 80, -4, 5, 40, 
  42, -103, -82, 48, -30, 10, -11, 127, 5, 48, -4, -43, 95, -1, 14, -114, -13, -13, -95, 92, 
  -43, -75, 40, -32, -62, -25, -98, 58, -36, 44, 60, 14, -43, -19, 20, -76, 8, -118, -112, 56, 
  1, -18, -72, -12, -19, -87, -18, -72, 99, 64, -34, -22, -95, -48, -97, 3, 77, 28, 18, -32, 
  72, -52, -19, -89, -28, -42, -99, 18, -125, -32, 15, -14, 46, -34, 11, -70, -32, -74, 91, -75, 
  -30, -16, 52, -24, -43, -70, -98, 11, 97, 30, 64, 98, -47, -36, 40, 58, -37, -5, -27, -14, 
  2, 61, -13, 127, -42, 70, 24, 46, 19, -25, -12, 24, 18, 34, 2, -2, -28, 43, -5, 16, 
  -127, 44, -24, -22, -12, 36, 46, 29, -26, 5, 42, -6, -12, 41, 35, -46, 64, 69, -6, -63, 
  -16, -6, -13, 20, 61, 56, -22, 18, 1, 54, -1, 21, 3, -18, -22, 32, -46, -80, -1, 29, 
  -77, -21, -43, -46, -4, -10, 23, 40, -9, -31, -18, 33, 23, -10, 68, -7, 31, 118, -66, -22, 
  20, 71, 32, -118, 77, -66, -4, -18, 108, -43, 46, -78, -46, 26, -9, 127, -39, -10, 42, 7, 
  -45, 33, 47, 35, 104, -42, -58, -25, 14, -43, 14, 55, -71, -46, 52, 68, -112, -14, -46, -39, 
  -57, 0, -25, 20, -18, 66, 14, 61, -15, -65, -22, -16, 73, -82, 93, -117, 11, -107, 13, 34, 
  23, 6, -125, 116, 48, 100, -3, -33, -90, -56, -50, 63, 17, -25, 2, 0, -44, 40, 24, -40, 
  8, -127, 73, 63, 10, -49, 22, 32, -21, 17, -46, -84, 15, -51, 12, 58, 23, -4, 64, 64, 
  -109, -4, 9, 17, 22, -13, 34, -75, -36, 7, 89, 25, 60, -95, 25, 38, 40, -35, 50, -113, 
  9, -20, -11, 121, -119, 57, 57, 6, -127, -58, -94, 36, 20, -9, 45, -21, 16, -113, 26, 63, 
  -40, -5, -64, -108, -60, -33, 71, 91, -120, 18, -90, 87, 40, 48, 43, -94, -118, -26, 19, -78, 
  31, 19, 43, 59, 63, 71, 50, -16, -37, 64, 32, 76, 51, -15, -13, -119, 62, -47, -115, 29, 
  -118, -52, -124, -24, 72, -47, 101, -63, -45, 1, 49, -50, 42, 62, -36, -64, 56, -36, 18, 56, 
  -36, -16, -24, 52, -21, -88, -108, -17, -35, -34, -11, 6, -17, -19, -78, -53, -40, -63, 16, -102, 
  -127, -37, 6, 94, -52, 53, 33, 14, 18, -51, 88, -7, -57, 17, 67, -15, 47, -3, 14, -28, 
  -80, -19, 51, 0, 29, 48, 59, 55, -54, -85, 46, -6, -42, 74, -85, 53, -9, -3, 31, -17, 
  127, 52, -5, -75, 49, -49, 14, 72, -23, -48, 3, 26, -46, 58, -40, -22, 11, -106, 27, -109, 
  9, -19, -57, -14, 29, -2, -8, 13, -42, -52, 11, -70, -62, -27, 44, 72, -81, 47, -11, -106, 
  -70, -43, 26, -4, -1, 2, -21, 62, -29, 41, -11, 48, 21, 34, -66, 83, 1, 44, -33, -41, 
  -71, 60, -83, -24, 123, -6, 49, -111, -51, -30, 65, -43, 11, 12, -38, 82, 14, -20, -48, 52, 
  -74, -24, 37, 45, -2, -62, -62, 49, -22, -2, -40, 88, 38, 45, -76, 56, 2, 45, 52, 42, 
  -37, -54, 62, 0, 93, -96, -70, -19, 29, -9, 40, -51, 122, 28, -25, -49, 5, -33, -32, -127, 
  42, -43, -57, 55, -11, 36, -1, -58, 14, 31, -10, -11, -29, -65, 55, -88, 88, -46, -7, 3, 
  3, 29, -127, 68, 33, -12, -24, 30, -28, -61, 36, -34, 1, 25, -65, -24, -2, 9, -5, -26, 
  -20, 22, -39, 0, 63, -20, 10, 26, 62, 34, 15, 92, 48, 10, -2, 22, 65, 52, -43, -9, 
  32, 11, 35, -5, 37, 34, -1, -66, 56, 22, 8, -12, 9, 97, -89, -110, 126, 87, 27, 17, 
  35, -44, -34, 38, -92, 38, -13, 5, 26, 46, -127, 24, 48, -124, 2, -76, 12, -19, -77, 40, 
  -20, 29, -12, 12, -47, -72, -6, 73, 29, 24, 54, -106, 41, -83, 54, 14, 31, 56, 33, 88, 
  125, 41, 88, 56, 59, 19, -28, 57, 100, -110, 56, 62, -36, 74, 57, 39, -63, -30, -31, 22, 
  -30, 62, 47, -30, 35, -79, 9, 34, 1, 84, -105, 36, 69, 19, -127, -30, -59, -86, -54, 99, 
  35, -127, -84, 3, 26, -35, -2, 122, -58, -94, -72, 53, 42, 95, -47, 7, 56, 75, 70, 1, 
  -51, 35, -26, -34, 13, -99, 67, 72, -44, 70, 1, 16, -29, -41, 127, 120, -48, 19, -70, -13, 
  -20, -62, 7, 62, -44, 32, 81, -67, 41, -46, -2, -50, -90, -69, -65, -41, 65, -24, -110, -65, 
  -51, -36, -9, 21, 65, -48, -47, 85, -47, 10, 57, 91, 11, -28, -104, 15, -20, 34, 100, 62, 
  -73, -40, 63, -99, -47, 47, 59, 8, 54, 14, 44, 8, 50, -42, 61, 17
};

#if HAS_BIAS
alignas(16) static NS_PUT_IN_TCM int32_t conv_2_bias[] = {
  2950, -2130, 1027, 1861, 2719, 2779, -2665, 3118, -175, 1338, 1490, 1725, 2797, 360, 3689, 1831, 1594, 160, 4501, 1117, 
  1891, 3329, 2112, -1767, 2176, 1895, 3524, -2024, 525, -121, 1295, -166, 1487, 45, 564, 2513, 2661, 1152, 1251, -3308, 
  1557, -1394, 2867, 430, 1235, 1860, 1961, -866, 1891, 1279, 2721, 3924, 1879, -515, 618, 316, 1145, 2838, 2195, 1386, 
  581, -2077, -113, -71
};
#else
static NS_PUT_IN_TCM int32_t *conv_2_bias = NULL;
#endif


alignas(16) static NS_PUT_IN_TCM int8_t conv_2_scratch_buffer[SCRATCH_BUFFER_SIZE];
alignas(16) static NS_PUT_IN_TCM int8_t conv_2_weight_sum_buffer[WEIGHT_SUM_BUFFER_SIZE];

static cmsis_nn_context conv_2_ctx = {
    .buf = conv_2_scratch_buffer,
    .size = sizeof(conv_2_scratch_buffer),
};

static cmsis_nn_context conv_2_weight_sum_ctx = {
    .buf = conv_2_weight_sum_buffer,
    .size = sizeof(conv_2_weight_sum_buffer),
};

const cmsis_nn_per_channel_quant_params conv_2_quant_params = {
    .multiplier = (int32_t*)conv_2_multiplier,
    .shift = (int32_t*)conv_2_shift,
};


const cmsis_nn_conv_params conv_2_conv_params = {
    .input_offset = -conv_2_input_zero_point,
    .output_offset = conv_2_output_zero_point,
    .stride.w = 1,
    .stride.h = 1,
    .padding.w = 0,
    .padding.h = 0,
    .dilation.w = 1,
    .dilation.h = 1,
    .activation.min = -128,
    .activation.max = 127,
};

int32_t aot_conv_2_init(void)
{
    return arm_convolve_weight_sum(
        (int32_t *)conv_2_weight_sum_buffer,
        conv_2_weights,
        &conv_2_input_dims,
        &conv_2_filter_dims,
        &conv_2_output_dims,
        conv_2_conv_params.input_offset,
        conv_2_bias
    );

}

int32_t aot_conv_2_run(const int8_t* __restrict input, int8_t* __restrict output)
{

    return arm_convolve_wrapper_s8(
        &conv_2_ctx,
        &conv_2_weight_sum_ctx,
        &conv_2_conv_params,
        &conv_2_quant_params,
        &conv_2_input_dims,
        input,
        &conv_2_filter_dims,
        conv_2_weights,
        &conv_2_bias_dims,
        conv_2_bias,
        &conv_2_output_dims,
        output
    );

}
