/******************************************************************************
 * @file        aot_conv_8.c
 * @brief       Autogenerated AOT CONV_2D kernel
 * @details     This file was generated by HeliosAOT v0.2.2 on 2025-06-10.
 *   This kernel represents node #8 in the corresponding graph.
 *
 * @date        2025-06-10
 *
 * @copyright
 *   © 2025 Ambiq. All rights reserved.
 *
 *   This generated C module is licensed for use **only** on Ambiq hardware
 *   incorporating Ambiq’s sub-threshold power optimized technology.
 *   Any other use is strictly prohibited.
 *
 *   See “LICENSE.txt” at the root of this distribution for full terms.
 *
 * @note        Do not edit this file—any changes will be overwritten.
 ******************************************************************************/

#include <stdalign.h>
#include "ns_ambiqsuite_harness.h"
#include "arm_nnfunctions.h"
#include "arm_nnsupportfunctions.h"
#include "aot_conv_8.h"

#if defined(ARM_MATH_MVEI)
#define SCRATCH_BUFFER_SIZE 0
#define WEIGHT_SUM_BUFFER_SIZE 256
#elif defined(ARM_MATH_DSP)
#define SCRATCH_BUFFER_SIZE 256
#define WEIGHT_SUM_BUFFER_SIZE 0
#else
#define SCRATCH_BUFFER_SIZE 0
#define WEIGHT_SUM_BUFFER_SIZE 0
#endif

#define HAS_BIAS 1

// Input dimensions: input shape is [1, H_IN, W_IN, C_IN]
static const cmsis_nn_dims conv_8_input_dims = { .n = 1, .h = 25, .w = 5, .c = 64 };

// Filter dimensions: weights shape is [C_OUT, H_FILT, W_FILT, C_IN].
static const cmsis_nn_dims conv_8_filter_dims = { .n =  64, .h = 1, .w = 1, .c = 64 };

// Bias dimensions: bias shape is [1, 1, 1, C_OUT].
static const cmsis_nn_dims conv_8_bias_dims = { .n = 1, .h = 1, .w = 1, .c = 64 };

// Output dimensions: output shape is [1, H_OUT, W_OUT, C_OUT].
static const cmsis_nn_dims conv_8_output_dims = { .n = 1, .h = 25, .w = 5, .c = 64 };

// Quantization parameters (per-channel quantization)
static const int32_t conv_8_multiplier[64] = {
  1288495360, 1272000256, 1133757184, 1325196544, 1544132096, 1576280576, 1250884096, 1416885504, 1257225344, 1398192000, 1182829312, 1322080768, 1344902400, 2033833984, 1719064576, 1135625088, 1170040192, 1353273856, 1554795008, 1202368256, 
  2132778496, 1528518272, 1492342144, 1710798720, 1149753728, 2079748864, 1262964480, 1636841216, 1329932928, 1678328192, 2045908480, 1181570304, 1473231872, 1208376192, 1989840768, 1382179712, 2082880384, 1915767680, 1245022976, 1320515712, 
  1168046592, 1200638592, 1970504448, 2076313088, 1433054720, 1128270336, 1241833728, 1370425088, 1955753600, 1321526912, 1258200960, 1358027392, 1304596480, 1414568448, 1282414080, 1231038336, 1459578112, 1460851584, 1551130112, 1218666880, 
  1131962880, 1482433920, 1846193408, 1482706048
};
static const int32_t conv_8_shift[64] = {
  -7, -7, -7, -7, -7, -7, -7, -7, -7, -7, -7, -7, -7, -8, -7, -7, -7, -7, -7, -7, 
  -8, -7, -7, -7, -7, -8, -7, -8, -7, -7, -8, -7, -7, -7, -8, -7, -7, -8, -7, -7, 
  -7, -7, -8, -8, -7, -7, -7, -7, -8, -7, -7, -7, -7, -7, -7, -7, -7, -7, -7, -7, 
  -7, -7, -8, -7
};

// Offsets and activation parameters.
static const int32_t conv_8_input_zero_point = -128;
static const int32_t conv_8_output_zero_point = -128;

// Weight and bias data.
alignas(16) static NS_PUT_IN_TCM int8_t conv_8_weights[] = {
  80, -27, -1, 36, -87, -21, 101, 57, -37, 94, 36, -1, -18, 20, -16, 10, -41, 5, 26, -38, 
  -1, 82, -21, -6, 2, -14, -41, -37, 32, 14, 82, 13, 36, -69, -73, -14, -42, -22, 1, 15, 
  -18, 26, 8, -18, 71, 8, -61, 64, 2, 17, 10, 46, 18, 11, 127, -22, -27, -44, -26, 50, 
  -97, 9, -46, -38, 2, -25, -72, -31, -10, 61, -33, 24, 20, -23, 127, 7, 26, -1, 16, 34, 
  -103, -19, -32, 32, -2, 19, 48, -53, -44, 10, -53, 68, 55, 39, -37, -90, 1, -8, -54, -35, 
  -59, -28, -27, 16, -31, 58, -40, 51, 11, -42, -36, 13, -7, 100, -17, -11, 43, 59, -27, -18, 
  61, 40, 27, -28, -14, 20, 43, -6, 52, -67, 83, 112, 19, -31, 111, 59, 24, 35, -64, -52, 
  53, 91, -16, -79, -5, 103, 48, -33, 24, 90, -62, -46, 50, -19, -121, -87, 5, -33, 121, 127, 
  -17, 4, -5, 16, -60, -3, 90, -56, 50, 13, 79, -70, -87, -30, 21, 107, -17, 11, -15, 72, 
  4, -6, 15, -62, 44, -44, -127, 29, -29, -32, -47, 54, -88, -13, 85, -5, 92, 43, -33, 34, 
  105, -19, -35, 13, -58, -70, -11, -4, -72, -38, -25, 23, -10, 1, -26, -51, -14, -42, 36, 58, 
  -68, 5, -22, -11, 32, -31, 11, 12, 24, -13, 11, 21, 51, -22, 12, -59, -18, -28, 127, 1, 
  -16, -3, -17, -10, 40, 27, -40, -4, -39, 13, 73, -18, 2, 37, -9, 41, 82, -10, -26, -53, 
  6, -11, 7, -17, -35, -5, 1, 29, -127, -4, 1, -23, -33, 47, -76, 22, 70, 56, 54, 23, 
  9, -16, 15, 40, 14, 24, -44, 22, -19, -30, -5, -37, -84, -65, -54, 5, -126, 20, -86, 72, 
  -22, 1, -49, -23, -1, 59, 56, -30, -59, -32, 94, 16, -70, 38, -50, -101, 69, -31, 9, 40, 
  -75, -3, 42, -16, -29, 55, -44, 67, 11, -47, -6, 52, 5, -77, 79, -31, -56, -99, -16, 19, 
  -29, -57, 11, -8, -27, 0, -3, -7, -35, -15, -30, -14, 11, 18, 5, -36, -26, 15, -17, -8, 
  29, -13, -19, 17, -53, -10, 50, -22, 127, -18, 71, -69, -32, 15, 12, 58, -57, 20, 35, 28, 
  94, 28, 7, -9, -43, -2, -73, 18, -91, 28, 113, 23, 44, 7, -20, 18, -68, -55, 85, -39, 
  -49, -41, -5, -46, 20, -48, -49, -91, -15, -47, 83, 2, -49, -60, 48, -32, 81, 0, -1, 19, 
  -38, 6, -15, 79, -13, 0, 69, 27, 54, 54, 42, 117, 127, 29, 12, -8, 28, -4, 121, 11, 
  -117, -71, 41, 108, -28, 74, -53, -69, 22, -38, -61, -8, 127, 33, -13, -18, 8, -101, -52, 66, 
  -66, 84, 6, -20, -59, -12, -38, 34, 4, 27, 61, -54, -1, 23, 53, 51, -24, 5, -3, 8, 
  -20, 36, 61, 1, -75, -28, -28, -28, 12, 36, 48, -23, -43, 50, 31, -11, -55, 74, -31, -65, 
  8, -8, -44, -25, 13, 120, 10, -119, 59, -31, 18, 59, 127, -64, 96, -6, -42, -48, -2, 46, 
  -19, 113, 74, 24, -40, 10, 2, 42, -1, -9, -44, 14, 33, 46, 21, -43, 34, -9, -10, 56, 
  7, 67, 36, -14, 49, -13, -49, -17, -17, -109, 32, -37, -89, 62, 3, -110, -58, 43, -57, 23, 
  34, -59, 28, 23, 74, 13, -15, -58, -28, -4, -37, -58, -82, 30, -103, 49, -9, -20, -93, 22, 
  120, -24, 41, -127, -19, -19, -42, -23, -105, 35, -26, 10, -63, 42, 36, -18, 50, 45, 65, 74, 
  -32, -34, 93, -82, 13, -19, -20, 29, -102, -28, 39, -23, 18, 35, 50, 2, 9, 6, -91, 11, 
  -47, -56, -8, -32, -62, 73, -33, -64, -85, -47, -17, 22, 17, 4, -17, -83, 86, -15, 13, 28, 
  40, -100, -14, 54, -28, -30, 127, 101, 39, -34, 78, 46, 18, 10, -36, -93, 4, 36, -22, -21, 
  -23, 53, -28, -40, 57, -42, -29, -13, 31, -22, 68, 4, 106, 9, -21, 35, 75, 5, 16, 10, 
  -3, 45, 61, 13, 37, 33, 48, 53, -8, 42, 5, 81, 70, -4, -47, -54, 11, 1, -30, 54, 
  -91, 5, -64, 4, -45, -22, -4, 87, 85, 26, -39, -1, 30, -78, -32, 44, -84, -21, -30, 14, 
  -44, -1, -20, 55, -26, 58, -11, -31, -6, -33, 82, -7, -35, 49, -54, -19, -49, 1, 24, 17, 
  -46, 40, 1, -9, -1, 9, 33, -20, -60, 48, 99, 35, -83, 127, -37, -74, -11, -16, -27, -23, 
  -25, 41, 74, -111, 33, 12, -56, 32, -50, -8, -2, -34, -14, 34, -59, -46, 8, 67, 73, -30, 
  -74, -104, -23, 42, 24, 46, -3, -32, -19, 6, 31, 64, -63, -60, -18, -27, -6, 13, 4, -23, 
  16, 4, -66, -11, 39, -32, -20, 68, -14, 32, -77, 28, 42, -9, -38, -24, 1, -7, 5, 50, 
  36, 12, 72, 40, -48, -28, 39, -108, -8, 44, 127, -45, -114, 16, -23, 1, 14, 45, -4, 5, 
  18, -48, -3, -8, 19, 51, 83, -78, -127, -27, 49, -10, -19, 23, -10, -51, -68, -38, -4, -68, 
  -43, -51, 102, -70, 10, 32, 24, -24, -63, 23, -49, 12, 98, 16, 10, 46, 56, 9, -4, 34, 
  85, -30, 8, -31, 44, 62, 57, -13, 106, 32, 85, 108, 6, -17, 41, -56, 95, -82, -40, 56, 
  24, -34, 127, -23, 7, 18, 49, -1, -29, -27, 20, 40, -77, -7, 17, 19, 17, 26, -20, -67, 
  16, -29, 73, -27, 39, 33, 15, 23, -12, -22, -15, -11, 7, 74, 59, -16, -51, -9, 14, -2, 
  -40, 14, -12, 12, 4, 55, -4, -8, -38, 8, -48, -33, -32, -8, 6, 63, 9, 37, -109, -46, 
  10, 43, 127, 24, -27, -30, 7, -28, 20, -14, -19, -18, 23, 2, -31, 77, 4, -43, 18, 15, 
  -10, -20, 15, -9, 63, -23, 35, -25, -65, 10, 17, 20, -53, -42, 18, -46, -6, -56, -70, -24, 
  -70, 24, 47, -69, 5, 48, 78, -15, -28, -54, -47, -2, -47, -52, -36, -25, -22, 67, -93, -57, 
  35, -4, -67, 94, 38, -38, 96, 15, -35, -3, -72, 101, -33, 39, -100, -1, -14, -24, 7, -127, 
  26, 47, -56, -37, 17, 66, -46, -7, 76, -71, -52, -43, -23, -61, 74, 10, 41, -70, 26, 100, 
  65, -77, -24, 65, -25, 18, -7, 10, 25, -24, 65, 61, -14, 65, 14, 55, -46, -72, 127, 0, 
  -110, -51, -61, -63, -35, 27, -33, 24, -15, 9, -8, 29, -7, -22, 81, -37, -2, -24, -52, 30, 
  -46, 49, -16, 19, 38, 45, 13, -30, -17, 19, 63, 5, 5, 7, 34, -31, -45, -52, 127, -25, 
  49, -25, 47, -4, -43, -9, -111, 55, 53, 95, -3, 1, 21, -15, -35, -18, -70, -26, -36, 81, 
  -23, -16, 7, -31, 35, 92, -103, -66, -14, -3, 86, 18, -34, 43, -58, -6, 1, 17, 20, -20, 
  -13, -22, 20, -18, -14, 86, -7, -35, -127, -10, 35, -18, 25, 32, 39, -7, -25, 21, -13, -63, 
  11, -37, 20, -37, -40, 9, 25, -13, -31, 10, -39, 3, 0, -10, -55, 48, 78, -80, -11, -22, 
  -7, 13, -11, -59, -43, -20, 91, -12, 52, 28, -8, 48, 22, -24, 15, 20, 48, -127, -39, -26, 
  10, 47, 35, 56, 62, 5, 57, 16, -80, -92, 106, 1, -106, 17, -62, 13, 28, -39, -23, -69, 
  -69, -75, 55, 69, -14, 61, 38, -88, 42, -19, -42, -49, -39, 112, 6, -14, 3, 16, 27, -31, 
  33, 20, 22, 0, 118, 4, 20, -49, 89, 89, -53, -11, -52, -34, 125, 109, -43, 72, -28, -89, 
  127, -51, 69, 22, -3, -74, -103, -23, 5, 99, 53, -82, -69, -78, -46, 23, -56, 105, -9, -12, 
  19, 80, -44, 27, -16, -88, 49, -18, 39, 86, 24, 1, -16, -45, -43, 19, 107, -2, 59, 31, 
  -43, 60, 31, -53, -13, 27, -75, 7, -55, 52, -42, 98, -8, -8, -32, 26, -29, 3, -38, -104, 
  -17, 60, 53, -61, -20, 20, 10, -1, -27, -14, -13, -53, -13, 26, -22, -51, 8, 14, 21, -38, 
  -20, 16, 57, -19, -18, -5, -6, 72, 4, -3, 9, -119, -13, -16, -17, 21, -56, -40, 2, -23, 
  45, 38, -17, 20, 33, -31, -90, 40, 51, -5, 5, -38, 55, -54, 18, -44, -44, -38, 127, 29, 
  -17, -39, 45, -6, 41, -10, -16, -24, -72, 55, 28, 18, -108, 61, -127, 76, 84, 19, 3, 17, 
  -35, 6, 71, -43, -96, 10, -24, 19, -51, 36, -65, 11, -36, -64, -50, 49, -29, -47, 25, -9, 
  -22, 53, -26, 2, 32, -22, 53, 56, 5, 3, 59, -19, -13, -6, 55, 97, 107, 25, -29, 51, 
  58, 76, 107, -39, -74, -46, 85, -35, 17, 63, 41, -46, -62, -4, -2, -85, 0, 66, -51, 33, 
  46, 5, -23, 24, -101, -52, 57, 5, -28, -15, -58, -2, -14, -9, 7, 33, -16, -46, 16, 24, 
  -58, -49, -4, -50, 50, 13, -8, -6, -33, -53, 3, 34, 9, 27, 24, -42, -12, 33, 5, -32, 
  88, -23, 67, 45, 38, 24, 31, -19, -77, 6, 26, -45, 20, 17, 127, -6, 16, -25, 100, 4, 
  -47, -2, 89, 82, 1, 31, -83, 36, -1, 32, 8, -90, 18, 59, -31, -38, 63, 108, 7, -8, 
  85, -27, -60, -84, -42, -77, 118, 38, 10, -90, 13, 12, -32, -75, -19, 54, 14, -8, 55, -82, 
  -6, 33, 42, 79, 38, -65, 56, 86, -6, -39, 127, -68, -50, -62, -34, -11, -33, 32, -52, 59, 
  -21, -34, 127, 43, 3, 20, -7, 52, 63, -13, -42, 79, -28, -19, 22, -39, -10, -30, -20, 10, 
  18, 12, -19, -70, -14, -55, -5, 11, -72, -14, -41, 13, 92, -38, 17, 20, 26, -14, -3, 13, 
  7, -7, 58, -66, 0, -21, 123, 49, 25, 35, 6, 8, 58, 2, -11, -18, -56, 42, 41, -56, 
  -35, 36, -34, 24, -23, -40, 47, -10, -3, -25, 127, 96, 15, 4, -36, 33, 16, 26, -6, -65, 
  23, -7, -10, -3, 21, 8, -26, -47, 85, -31, 1, -43, 7, -63, 1, -12, 94, -25, 25, 34, 
  54, -38, 12, 40, 53, -11, 30, -58, 11, -22, 50, -1, -18, -48, 14, 10, -9, -39, -15, -71, 
  16, -5, -63, 16, -48, 0, 17, 101, -47, -2, 127, -4, 79, 4, -1, 38, 100, -11, -33, 44, 
  -48, 19, -17, -70, -27, -67, -6, 12, -10, 15, -6, -48, -2, -78, 24, 1, -46, -11, -74, 34, 
  107, -18, 43, 121, 40, -15, 3, 116, 23, 4, 52, -82, 44, -38, 115, 28, -99, 7, -26, 74, 
  33, -53, 7, -22, -68, -22, -48, -24, -80, 5, -28, 98, -20, -9, -50, 36, 44, 23, 127, 8, 
  13, 65, -29, -33, -41, 11, -6, -19, 36, 102, 34, -63, 19, 38, -14, -24, 12, -10, 17, -52, 
  -10, -39, 60, 46, 51, -44, -11, -2, 46, 7, 120, -37, -1, 34, 42, -45, -49, -3, -16, -11, 
  -16, 16, -28, 64, 24, -12, -60, -48, 64, -2, -84, -23, -48, -2, 75, -24, -18, 1, 26, -16, 
  33, -10, -6, -35, -32, -45, -30, -15, -26, 54, 27, -21, -37, -96, -1, 56, 33, 21, 33, -4, 
  32, -34, 50, -78, -8, -7, -33, 42, -67, -5, 55, -24, -41, 34, 5, -65, 20, -54, -63, 33, 
  -62, -5, 26, -17, 69, -41, 63, -127, -68, -22, 12, 50, -18, 18, 38, 2, 103, 8, -52, 50, 
  0, -40, -9, 99, -20, -67, -15, -73, -45, -21, -33, -24, -87, -15, -76, 114, -57, -58, 16, 59, 
  -13, 59, -9, 40, -35, -17, 98, -55, 23, 99, 29, 65, -116, -89, -23, -24, -29, 107, -9, -7, 
  -14, 5, -83, 60, -20, 127, 19, 14, -89, 91, -77, -56, -95, -7, 21, 48, -16, -69, 83, -101, 
  20, 48, -118, -66, -46, -22, 94, 27, 19, 9, 40, 64, 85, -11, -36, -4, -20, 17, -15, -46, 
  11, 2, 6, 6, 7, 47, -71, -54, 32, -56, -16, -18, -39, -60, -33, 8, 64, -18, 34, 43, 
  3, -52, 14, 34, 77, -13, 62, -70, -2, -37, 127, 15, -34, 17, -13, 23, 26, -7, -3, -49, 
  9, 16, -14, -33, -65, -1, 22, 93, -47, 24, 35, 53, -32, -39, 50, 5, 20, 7, -63, 33, 
  -54, 35, -2, 3, -13, 7, 1, -23, 3, 18, -14, -31, 28, -22, 19, 10, -20, -24, 127, -4, 
  2, -34, 12, 3, -53, 32, -59, 34, 30, 27, 16, -17, -30, 36, 58, 36, -84, 18, -60, 48, 
  -44, -40, 42, -19, -12, 64, -30, -47, -20, 3, -28, 30, 86, -42, 14, 4, -93, -12, 49, 43, 
  -10, 90, 127, -12, -41, -106, -50, 77, -29, 18, -45, -30, -1, 42, 2, -14, -50, -35, -29, 53, 
  29, 43, 94, -5, 77, -63, -99, -32, -38, -21, -77, 66, -67, 72, -30, 22, 46, 16, -87, -12, 
  -12, 2, 28, 61, 23, 35, 91, 2, -68, -15, -8, -22, -60, 10, 43, -62, 25, 38, 62, -47, 
  -2, -45, 11, -55, 8, -19, -74, 58, 15, 26, 23, 51, -11, -93, -38, 12, 25, -51, -52, -11, 
  94, -24, 48, 50, -90, -42, 0, 66, 39, -65, 94, -26, -100, -57, -50, -4, 17, 71, 6, -108, 
  31, 111, 85, -84, 10, -102, 36, 8, -17, -64, 6, -91, -18, 127, -113, -78, -11, -14, 106, 92, 
  11, 10, 75, 37, -40, -43, -67, 21, -43, -127, 51, 50, 80, 32, -73, -22, -23, -62, 27, 90, 
  -17, 19, -10, -18, 19, -68, 34, -4, 96, 45, -39, 11, -55, 74, 2, 30, -54, -32, -40, -38, 
  -28, 3, -18, 107, -76, -26, 32, 18, -108, 73, -20, -66, -79, -25, 64, -67, 37, 80, -76, -92, 
  -18, 2, -88, 56, -42, 58, 31, -15, 21, 3, -28, -7, 15, 16, -29, -24, -64, -34, -14, 11, 
  44, 12, -1, -36, 6, 0, -9, 32, 2, -56, 34, -8, -35, -25, 11, -7, 13, -11, -7, -1, 
  25, -40, -12, 47, 23, 33, -18, -12, -6, -8, -15, -55, -31, -43, 8, 39, -15, -14, -22, 4, 
  9, 16, -18, -79, 25, 3, 127, 1, 61, -77, -71, 42, 84, 22, 71, 12, 33, -27, -6, -2, 
  -56, -21, -7, 79, -82, 8, -32, -13, -47, 24, 28, -36, -41, -14, 79, 24, -69, 32, 127, -32, 
  55, -9, -28, -32, -89, 121, -76, -11, 25, 101, 5, -10, -35, 52, 1, -25, -19, -15, -44, 12, 
  44, 51, -74, 12, 24, 24, 43, -16, -92, 3, 24, -95, -66, -3, -96, -43, 3, 36, 0, -39, 
  15, 0, 117, -42, -50, -10, 10, -31, -39, 19, 12, -24, 79, 41, 89, 39, -54, 10, 46, -44, 
  51, -14, -81, -63, -44, 45, -42, -25, 127, 22, 47, 47, -60, -22, -99, 103, 21, -100, -31, -15, 
  56, 53, 4, -54, -22, 24, -21, 46, -62, -1, 24, -105, 36, 13, 23, 3, 1, 5, -73, 18, 
  2, -4, 56, -22, -20, -1, 127, 2, 56, 21, -36, -18, -86, 44, 31, 8, 27, 33, 30, -54, 
  -47, -15, -14, -51, 86, 25, 14, -42, 14, -12, -36, -14, 18, 14, -38, 10, -42, 22, -56, 72, 
  58, -78, -44, -13, -55, 50, -22, -11, -6, 0, 38, -10, 86, 43, -9, 19, -49, -12, -12, -26, 
  -46, -1, 60, -1, 23, -30, -56, 27, -4, -48, -18, 39, -15, 39, -35, -106, -79, -86, 33, -1, 
  10, -24, -9, -67, 127, -53, -54, 61, 29, -65, -6, -14, -71, 42, 52, 64, 49, -33, -35, 50, 
  105, -9, 25, 53, -13, -49, 50, -17, -107, 65, 0, -52, -92, -56, 59, -44, 67, 77, -56, -32, 
  55, -42, -31, 111, -33, 24, 37, 15, -22, 37, -13, 23, 25, -79, 98, 64, -12, 33, -22, -37, 
  -23, -11, 18, 39, 35, 90, -11, -18, 1, -60, 34, 24, 47, 59, -127, -34, 0, 39, -4, 21, 
  30, -32, 0, -6, -8, -8, -17, -28, -9, -63, 12, 39, -68, 78, 3, -46, 56, 2, -11, -62, 
  -83, 17, -3, -90, -65, 24, -29, 69, -18, -45, 121, 41, -17, -32, 51, 77, 6, 47, -30, -48, 
  37, -6, -5, -6, -14, -1, 40, -23, -8, 61, -72, -35, 69, -26, 30, -88, 18, -32, -74, -6, 
  69, -27, 1, 127, 122, 5, 107, -1, -11, -25, -15, -36, -47, -16, 55, 40, -29, 39, -10, 3, 
  -56, -64, -17, -41, -45, -16, -85, -15, -20, 70, -26, 90, -107, 0, -61, 23, -21, 48, 86, 89, 
  46, -20, -10, 127, -87, 29, 28, -122, -44, -39, -58, 13, 60, 23, 2, -66, -3, -36, 94, 25, 
  -13, -85, -51, -58, 100, 89, 47, 29, 1, -28, 23, 69, 11, -27, -16, -33, 2, -17, 83, 48, 
  -10, 44, 20, 7, 36, -29, -52, -72, -61, 47, -29, -73, -37, -44, 14, 118, 86, -36, 42, -24, 
  10, -16, -44, 36, 1, -3, 37, -31, 27, -22, -24, 60, -46, 26, -89, 6, -43, -3, -34, -17, 
  7, -10, -63, 37, 31, 78, -4, 1, -18, -27, -35, -36, -84, -42, -70, -40, -19, 88, 5, 32, 
  -49, 5, -27, -11, -16, -13, -15, -31, 39, 20, -23, -4, 88, 38, -8, -35, -18, 6, 127, 2, 
  10, -55, -14, 23, -31, -14, -75, -49, -4, -49, -82, -37, -13, 39, 13, 24, -75, -27, -15, 43, 
  -3, 32, 48, 10, -31, -37, 74, -55, -19, 49, 37, 40, -118, 21, -45, -48, -64, 119, -7, -4, 
  19, 2, -91, 12, -35, 47, 23, 22, 52, 60, -33, -64, -96, 55, 22, 50, -2, -77, 127, -58, 
  62, 63, -33, -69, 51, 16, 74, -27, 2, -39, -71, 20, -2, -40, 30, -50, 77, -40, -4, 40, 
  -81, -33, -22, 38, -55, 5, -18, -3, -15, -18, -39, 34, 9, 72, 2, 34, -10, -24, -25, -59, 
  -127, 54, -59, -79, -12, 53, -29, 23, -48, 61, -3, -26, 37, -59, 4, -79, -24, 35, 2, 30, 
  103, 3, 49, 20, 0, 37, 84, -30, -77, 29, 67, 5, 12, 16, 0, 77, 10, -127, -11, -31, 
  80, 82, -33, -98, 15, -35, 23, 69, -22, 32, -46, -58, 10, -46, -40, -17, 18, -46, -20, -45, 
  44, 97, 36, 11, -38, -12, -20, -45, 91, -39, 33, 28, -15, -62, 110, 22, -33, -54, 31, -96, 
  -17, 66, 24, -51, 106, 88, -38, 45, -5, 10, 57, 76, 2, 40, 119, -26, 78, -2, 19, 78, 
  -23, -45, 100, -17, 58, -47, -61, -41, -54, -50, -14, 12, 6, -29, -65, -53, 78, -115, -4, -30, 
  76, 15, -127, 38, 62, 46, 24, 21, 62, -85, -40, -92, 66, -24, 67, -28, -24, -55, 7, 4, 
  -35, -81, 89, -43, 8, 25, 20, -82, 94, 70, -67, 57, -79, -70, 20, 127, -9, -9, 9, 58, 
  -1, 9, 41, -31, -21, 13, -11, -28, 4, 64, -28, 1, -53, 22, 68, -28, -37, 42, -18, -27, 
  -38, -16, -5, -51, -24, -9, 127, 4, -4, -29, -11, -12, -19, -10, -70, 2, 56, 38, -19, 28, 
  30, -25, -2, 19, -46, 26, -40, 1, -11, -20, 50, -14, 87, 22, -6, 45, -15, -15, -12, -32, 
  57, 8, 60, 46, 93, -42, 72, -14, 24, 44, -125, -22, -78, -61, -4, 6, 3, 5, 38, -48, 
  3, 8, -11, 22, 0, -87, 118, -19, -58, -38, 2, 37, 7, -40, 31, 4, 127, 1, 3, -1, 
  12, 19, 4, -24, -35, 42, -7, -26, -35, -61, -20, 17, -52, -42, -67, -34, 17, 17, -64, -51, 
  66, 11, 40, -1, -49, 3, -14, -67, 9, 60, -8, 65, 13, -32, 15, -27, 20, 34, 97, -66, 
  -109, -67, -5, 36, -38, 12, 6, -61, -35, -52, -21, -64, -15, -10, 15, -35, -14, 53, -6, -26, 
  -47, 29, -4, -28, 69, -20, 61, 64, 33, -26, 30, -15, 127, -61, 42, -84, -4, 79, 0, -1, 
  26, 2, 68, 121, 15, -11, 39, -1, 2, -71, 11, 77, 92, 22, -103, 2, 7, -22, -110, -35, 
  29, -47, 27, 64, -111, 5, -15, 54, -11, -19, -20, 3, 5, -10, 65, -70, -70, 55, 19, 59, 
  -121, 41, 35, -23, -98, 115, 110, -58, 71, 16, 19, 1, -127, 31, 121, 46, 34, 63, -44, -91, 
  -33, 54, -53, 24, 44, -25, 108, -35, 62, 51, -13, -42, -72, -2, -17, -33, -48, 59, -69, -6, 
  20, -34, 7, -40, -10, -10, 68, -62, -85, -8, 3, 6, -5, -26, -4, 12, -32, -58, -51, -31, 
  -2, -51, -31, -37, 1, 42, 0, -12, 56, 11, 26, 10, 51, -18, 30, 58, 37, -39, 11, 11, 
  127, 3, 33, -35, 29, 36, 77, 2, 39, -11, 48, 17, 35, 20, 39, -21, -5, 25, 66, -6, 
  -14, -14, -22, 51, -30, 82, -29, -73, 23, 32, 17, -94, 14, 30, -43, -23, 24, 38, -44, 15, 
  18, -50, -57, -87, 25, -41, -36, 46, -37, -83, -1, 31, 63, -32, 49, 0, -12, -33, -18, -51, 
  -36, -39, 21, 4, 36, -4, 80, 71, -20, -70, 127, -5, -58, -36, -12, -50, -23, 14, 18, 69, 
  54, -31, 40, 1, 38, -22, 38, 70, -39, -49, -28, 89, -82, 35, 21, -43, 4, -9, -60, 5, 
  24, 25, 61, 8, 63, -14, 35, -56, 31, -55, 25, -1, 34, 20, 37, 49, 7, -97, -19, 41, 
  -73, -6, 48, -35, 18, -31, 30, -15, -27, 11, 94, 31, -63, -59, 6, -51, -65, 50, -66, -79, 
  46, -30, -55, 127, -60, 1, -74, -63, 11, 72, -4, -2, 7, 23, 37, -33, 24, 49, 73, -58, 
  -97, 4, -16, 43, 53, 29, 43, 17, 13, -26, 16, -94, 25, -55, -58, -27, -39, 27, 19, -29, 
  42, -8, 127, -41, -5, -50, -28, -5, -16, -78, -10, -17, 104, -29, 60, -47, 5, 46, -9, -5, 
  15, -14, 12, 62, 45, -6, 54, 28, 127, 40, 77, -43, 4, -36, -50, 8, 9, -28, 48, -22, 
  22, -38, -31, 44, -45, 31, -99, 26, -17, 12, -29, -25, 14, -22, -45, 80, 26, 80, -22, 16, 
  -10, -72, -35, -39, -70, -18, -71, -49, -96, 78, 11, 12, -44, 41, -32, -9, -12, -23, 21, -42, 
  -7, -3, 4, 3, 7, 35, 35, -52, -25, 30, 65, -27, 53, -44, 113, 19, 4, -51, -68, -64, 
  27, -29, 99, 31, 60, -64, -49, 15, 8, 51, -6, 36, -27, 42, -60, -16, 3, -41, 35, -23, 
  31, 127, -35, -34, -16, -8, -34, -14, 7, 92, -39, -38, -73, 68, -55, -17, -38, 10, 40, 37, 
  -25, 55, -38, -33, -20, -18, 13, -19, -19, 28, 26, 2, -55, 76, -90, -41, 17, 32, 86, -5, 
  4, 6, -70, 41, 21, -42, -59, 11, -36, -51, -22, -46, 80, 35, -37, -29, 12, -36, -65, -20, 
  15, -37, -31, -16, -22, -54, 37, 6, 41, -14, 11, -17, 9, -83, -77, 47, -1, 42, 62, -79, 
  -32, 37, 39, -36, -29, 1, 0, 82, -51, -62, 27, -50, 4, 45, -80, 11, 29, -12, 127, 90, 
  -32, -12, -20, 87, 6, -27, 0, -62, 26, -67, 60, -26, 76, -19, -42, 60, -111, -24, 41, 106, 
  -17, 68, 30, -33, -27, -63, 62, -76, 39, 71, 20, -6, -87, -17, -27, -59, -39, 127, 8, -13, 
  2, 21, -34, 55, -32, 24, 28, 22, -12, 52, -37, -103, -18, 80, -34, 24, 78, 17, 88, 28, 
  3, 35, -82, -54, -30, -15, 5, 9, 14, -23, -57, -58, -11, 11, -29, -52, -20, 62, -7, -24, 
  -79, 48, 44, -43, 9, 39, 7, 62, -30, -15, 4, -94, 1, -32, 18, 33, -72, 11, 8, -27, 
  -17, 17, 17, 24, 33, 5, -88, 2, 11, -39, -6, 0, -8, 39, -9, -36, -47, -25, 127, 11, 
  25, -6, -30, -49, 66, 3, 1, 12, 81, -13, 105, -11, -66, -69, 86, 115, -19, 5, 15, 73, 
  20, -80, 23, -19, -31, -26, 8, -2, 19, 36, -62, -10, 15, -65, -26, 63, 53, -61, -64, -21, 
  49, -20, -25, 119, 54, -52, -48, -84, 41, 21, 50, -1, 43, 42, 31, -9, 16, 6, 56, 24, 
  -11, -33, -24, -41, -18, 32, -127, 35, -61, 52, -85, 96, 17, -21, 49, -4, 8, -34, -61, -55, 
  37, 37, 9, -59, -47, -112, -26, 49, 0, 29, -43, -15, -1, -28, -39, 16, -54, -49, 2, 18, 
  -27, 68, -9, -41, 4, -29, -39, -37, 42, 19, -9, -7, -4, 69, -39, -25, 3, 44, -15, -32, 
  -36, -12, -19, -24, 9, 7, -38, 22, 6, 47, 25, -86, 5, 47, 127, -52
};

#if HAS_BIAS
alignas(16) static NS_PUT_IN_TCM int32_t conv_8_bias[] = {
  -1989, 1416, -2778, 1276, 5653, 3672, -528, 1344, 946, 6747, -5993, 2735, 2973, -544, 281, 3569, 1429, -351, 2914, 1182, 
  2554, 3511, -547, 2738, -1590, -1174, -1547, -890, -797, 4840, 5617, -1419, 664, 385, 2873, 4123, 2414, 823, 4388, 876, 
  2897, 1882, -188, 1518, 2101, 5070, 2927, -1573, 774, -585, 2195, 447, 1743, 2316, 3304, 388, 2386, 3316, 1540, 1486, 
  1064, 4623, -799, 5472
};
#else
static NS_PUT_IN_TCM int32_t *conv_8_bias = NULL;
#endif


alignas(16) static NS_PUT_IN_TCM int8_t conv_8_scratch_buffer[SCRATCH_BUFFER_SIZE];
alignas(16) static NS_PUT_IN_TCM int8_t conv_8_weight_sum_buffer[WEIGHT_SUM_BUFFER_SIZE];

static cmsis_nn_context conv_8_ctx = {
    .buf = conv_8_scratch_buffer,
    .size = sizeof(conv_8_scratch_buffer),
};

static cmsis_nn_context conv_8_weight_sum_ctx = {
    .buf = conv_8_weight_sum_buffer,
    .size = sizeof(conv_8_weight_sum_buffer),
};

const cmsis_nn_per_channel_quant_params conv_8_quant_params = {
    .multiplier = (int32_t*)conv_8_multiplier,
    .shift = (int32_t*)conv_8_shift,
};


const cmsis_nn_conv_params conv_8_conv_params = {
    .input_offset = -conv_8_input_zero_point,
    .output_offset = conv_8_output_zero_point,
    .stride.w = 1,
    .stride.h = 1,
    .padding.w = 0,
    .padding.h = 0,
    .dilation.w = 1,
    .dilation.h = 1,
    .activation.min = -128,
    .activation.max = 127,
};

int32_t aot_conv_8_init(void)
{
    return arm_convolve_weight_sum(
        (int32_t *)conv_8_weight_sum_buffer,
        conv_8_weights,
        &conv_8_input_dims,
        &conv_8_filter_dims,
        &conv_8_output_dims,
        conv_8_conv_params.input_offset,
        conv_8_bias
    );

}

int32_t aot_conv_8_run(const int8_t* __restrict input, int8_t* __restrict output)
{

    return arm_convolve_wrapper_s8(
        &conv_8_ctx,
        &conv_8_weight_sum_ctx,
        &conv_8_conv_params,
        &conv_8_quant_params,
        &conv_8_input_dims,
        input,
        &conv_8_filter_dims,
        conv_8_weights,
        &conv_8_bias_dims,
        conv_8_bias,
        &conv_8_output_dims,
        output
    );

}
