/******************************************************************************
 * @file        aot_conv_6.c
 * @brief       Autogenerated AOT CONV_2D kernel
 * @details     This file was generated by HeliosAOT v0.2.2 on 2025-06-10.
 *   This kernel represents node #6 in the corresponding graph.
 *
 * @date        2025-06-10
 *
 * @copyright
 *   © 2025 Ambiq. All rights reserved.
 *
 *   This generated C module is licensed for use **only** on Ambiq hardware
 *   incorporating Ambiq’s sub-threshold power optimized technology.
 *   Any other use is strictly prohibited.
 *
 *   See “LICENSE.txt” at the root of this distribution for full terms.
 *
 * @note        Do not edit this file—any changes will be overwritten.
 ******************************************************************************/

#include <stdalign.h>
#include "ns_ambiqsuite_harness.h"
#include "arm_nnfunctions.h"
#include "arm_nnsupportfunctions.h"
#include "aot_conv_6.h"

#if defined(ARM_MATH_MVEI)
#define SCRATCH_BUFFER_SIZE 0
#define WEIGHT_SUM_BUFFER_SIZE 256
#elif defined(ARM_MATH_DSP)
#define SCRATCH_BUFFER_SIZE 256
#define WEIGHT_SUM_BUFFER_SIZE 0
#else
#define SCRATCH_BUFFER_SIZE 0
#define WEIGHT_SUM_BUFFER_SIZE 0
#endif

#define HAS_BIAS 1

// Input dimensions: input shape is [1, H_IN, W_IN, C_IN]
static const cmsis_nn_dims conv_6_input_dims = { .n = 1, .h = 25, .w = 5, .c = 64 };

// Filter dimensions: weights shape is [C_OUT, H_FILT, W_FILT, C_IN].
static const cmsis_nn_dims conv_6_filter_dims = { .n =  64, .h = 1, .w = 1, .c = 64 };

// Bias dimensions: bias shape is [1, 1, 1, C_OUT].
static const cmsis_nn_dims conv_6_bias_dims = { .n = 1, .h = 1, .w = 1, .c = 64 };

// Output dimensions: output shape is [1, H_OUT, W_OUT, C_OUT].
static const cmsis_nn_dims conv_6_output_dims = { .n = 1, .h = 25, .w = 5, .c = 64 };

// Quantization parameters (per-channel quantization)
static const int32_t conv_6_multiplier[64] = {
  1297315328, 1468492800, 1365389696, 1663912960, 1704283136, 1164680576, 1425183232, 1308371072, 1174422400, 1814191488, 1255544064, 1354838912, 1430539008, 1276332288, 1133892992, 1279299840, 2043925760, 1886366848, 1696393600, 2119679872, 
  1109649280, 1439202176, 1530326144, 1780452864, 1474144256, 1348916736, 2127510784, 2145988224, 1426113920, 1541155840, 2080786304, 1606089216, 1100905472, 1121256576, 2035983104, 1855576704, 1170383488, 2131232896, 1324947200, 1291685632, 
  1182123648, 1225577216, 1186540672, 1241111168, 1696464768, 1385422080, 1916933760, 1455092864, 1708877568, 1446115200, 1186109312, 1075221248, 1187914368, 1355229696, 1352046464, 1192666880, 1950388480, 1528773248, 1278521600, 1628880768, 
  1189265792, 1137548800, 1693155584, 1237104128
};
static const int32_t conv_6_shift[64] = {
  -7, -8, -7, -7, -7, -7, -7, -7, -7, -8, -7, -7, -7, -7, -7, -7, -8, -8, -8, -8, 
  -7, -7, -7, -8, -7, -8, -8, -8, -7, -7, -8, -7, -7, -7, -8, -8, -7, -8, -7, -7, 
  -7, -7, -7, -7, -7, -7, -8, -7, -8, -7, -7, -7, -7, -7, -7, -7, -8, -7, -7, -7, 
  -7, -7, -8, -7
};

// Offsets and activation parameters.
static const int32_t conv_6_input_zero_point = -128;
static const int32_t conv_6_output_zero_point = -128;

// Weight and bias data.
alignas(16) static NS_PUT_IN_TCM int8_t conv_6_weights[] = {
  6, 25, 14, 49, -29, 38, -93, 15, -38, -78, 115, -14, 50, -127, -3, -74, 15, 2, -4, -5, 
  23, 19, 10, -76, -11, 9, -29, -13, 76, 42, -9, -64, -43, -96, -48, -49, 79, 11, 64, 24, 
  12, 32, -41, 4, -36, 81, -11, 21, -19, 52, -12, -73, 78, -71, -17, -39, 4, -59, -7, -31, 
  12, -97, 7, 40, 81, 18, -96, -105, -7, -17, 26, -38, 22, 26, 17, 25, 33, 82, 43, 71, 
  -44, 15, -22, 12, -127, 75, 58, -8, -20, 22, 10, -44, -36, -39, 46, 30, -17, 39, 97, 56, 
  35, 102, 17, 15, -27, -47, -80, -43, -19, -51, 36, 60, 75, 71, 18, 127, 122, 44, -59, -69, 
  11, -14, 87, -25, 47, 38, -54, 47, -8, -47, -41, -40, 62, -7, -101, -11, -67, -11, -5, -31, 
  -44, -13, 97, 59, 4, 66, -17, 66, -26, 66, -61, -52, 42, 34, 127, 84, 83, 35, 101, 33, 
  64, -107, 44, -44, 59, -2, 41, -65, 13, 22, -44, -62, -53, 45, -25, 6, -57, 64, 24, -14, 
  0, 61, 29, -4, -71, 8, -83, 52, -21, -37, -67, -18, 88, -26, -20, 3, 61, 79, -40, -17, 
  -16, -53, 43, -21, 31, -12, -1, -104, -35, -62, -37, 91, 15, -67, 90, 10, 25, 19, -41, 6, 
  -60, 67, -51, -69, -31, -2, -48, 34, 29, 127, 53, 23, 8, -44, -9, 4, -46, 24, 68, -97, 
  -8, 15, 25, -22, -61, -59, 20, -25, -59, -45, 52, -2, 28, 6, -39, 2, 48, 45, 127, -12, 
  -64, -66, 34, 31, -53, 14, -20, 12, -22, 31, -30, -93, -39, 90, 7, 25, -40, 23, 40, -51, 
  -2, 0, -49, -45, -9, 43, -22, 53, -42, 59, 31, 18, 39, 31, 13, -23, -10, -45, -92, -2, 
  60, -36, 10, -26, 14, -16, 61, 21, -66, -30, -37, -74, 23, -60, -62, -4, -90, 53, 53, 43, 
  -73, -28, 67, 29, -22, 50, -103, 13, -4, 25, -20, 59, -26, 34, -78, -39, -32, -35, 40, 9, 
  -70, -34, -62, 34, -30, -33, 28, 61, -127, -23, 30, -23, 1, 4, -39, -68, -18, 65, -29, 50, 
  -59, 22, -85, 58, 41, -27, -14, 18, -16, 35, 111, 66, 38, -67, 46, 22, -34, -52, 41, 46, 
  -91, 101, -52, 65, 51, 30, 76, -43, -25, 8, 12, 2, 48, -91, -14, -20, -73, -6, 42, -29, 
  -8, 48, -87, -19, 127, 43, 37, -81, -6, 81, 28, 26, 20, -25, -40, 30, -49, -84, 0, -30, 
  -20, -4, -65, -17, -28, 44, -86, -61, 27, -41, 69, -9, 30, 45, -91, 6, 43, 18, 56, -25, 
  -10, -59, -80, -11, -59, 28, -84, 82, -21, 22, -84, 11, -46, 47, 60, -73, -6, 73, -18, -51, 
  46, -63, -9, 61, 46, 91, 50, -57, -30, -46, -127, 48, 40, -30, 4, -28, -12, -17, 8, -3, 
  29, 97, -76, -53, -61, 69, -27, -39, 57, -15, 19, -27, -91, -34, -28, 29, 65, -12, -36, 2, 
  44, -49, -7, 16, 38, -61, -75, 79, -2, 26, 41, -66, 7, -75, 17, -10, -51, 1, -7, -69, 
  -35, 55, -5, -66, -47, 33, -4, -42, 31, -49, -23, 8, 10, 49, -48, 12, -19, -65, 41, -35, 
  -12, -2, -28, 13, -32, 59, -10, -14, -19, 4, -46, -15, -47, -20, -27, -28, 17, -5, -32, -61, 
  -63, 45, 41, -31, 34, -16, -23, 18, 127, 66, 28, 1, 9, 65, -43, 73, -92, -37, -29, 68, 
  -55, 28, -96, -62, 79, 20, 104, -64, -73, 6, 5, -67, 2, 20, -117, -37, -40, 29, 85, 14, 
  -65, -48, -61, -20, -14, 83, 38, 38, 12, 48, -81, 56, 9, -45, -12, -52, 63, -79, -51, 60, 
  -62, -19, 62, 6, -7, 4, 55, -2, 103, -98, -37, 70, -107, -23, -79, -51, -51, -7, 28, 127, 
  -14, 5, 1, 108, -17, 85, -46, 91, -27, -4, 2, 120, -31, -62, 127, -2, -75, -99, -53, 46, 
  34, 27, 58, -94, -89, -62, -57, -34, -15, 43, 67, -29, -53, -88, -3, -87, -64, 36, 57, -47, 
  34, 58, 15, -55, 5, 63, 15, -10, -62, -29, -68, 14, 46, -26, -99, 18, -99, 7, -22, -53, 
  -68, -67, 12, -74, -24, 74, -35, -14, 42, -12, -4, 5, -7, 37, 35, 53, 72, 14, 25, -39, 
  52, 57, 127, 19, -65, 25, -99, -54, 18, -7, 22, -36, 125, 19, -11, -35, -62, 4, 28, -10, 
  44, 22, 18, -46, 69, 11, -1, -67, 44, -53, 24, -13, 47, -79, -125, 31, 7, 9, -45, -1, 
  17, -8, 108, 20, -22, -75, -24, -2, -1, 47, 87, 1, -16, 32, -45, -74, 88, 32, 33, -60, 
  -13, -7, -13, -22, -38, 10, -31, -56, 16, 13, 38, -71, -26, 12, 18, -69, -3, -66, -50, -43, 
  -28, 9, -18, 37, 34, 55, 21, -23, 62, 23, -45, -36, 56, 28, -64, 20, -71, 37, 55, -62, 
  6, 127, 72, 57, 53, 5, -37, -30, 43, 28, -34, 24, -66, 74, 18, -3, -38, 81, -77, 127, 
  -43, -80, 70, 57, 97, -66, -38, -57, 104, 7, -38, 49, -82, 0, -32, -16, 17, -44, -43, -53, 
  -19, -41, -22, 53, -55, 107, 12, -90, 1, -1, 12, 39, -17, 8, -19, -37, 56, 10, 12, 26, 
  112, -104, 24, -43, 7, -51, 55, -26, 93, 56, -84, 12, 1, -91, 57, 19, 45, 52, 68, -22, 
  -8, 79, -3, 111, -60, -7, 12, 39, 63, -11, 8, -127, -12, 66, 24, -52, 90, -37, 102, 11, 
  4, 47, -41, 108, -56, -60, 48, 93, -51, 9, -40, -92, -16, -22, -56, 0, 13, 71, -90, 57, 
  -77, -29, -76, -60, 39, 6, -4, 42, -64, 2, -4, 32, 0, -43, -32, 59, 35, 20, -37, -37, 
  42, -52, -16, -31, 9, -2, 53, -4, 11, -7, -78, -21, -7, 57, 64, 50, -38, 19, -21, 46, 
  -16, -40, 10, -53, -76, -44, 46, -56, 107, 31, -16, -16, -15, 74, 109, -70, 81, -45, -13, -54, 
  8, -61, -83, 77, -68, 28, -74, 63, 79, -6, 119, -108, -127, 70, -91, 83, -79, -51, -68, 55, 
  -72, 36, 15, -23, -26, -60, -77, 30, -22, -60, -62, -1, 43, 25, 38, -13, -10, -50, 35, 1, 
  -55, -24, -20, 63, -26, 83, 35, -52, -84, -10, -6, 66, -8, 26, 19, 101, -38, -100, -30, -23, 
  -14, 44, -46, -83, -52, -74, 127, -48, 14, 7, 54, 11, 11, 46, 105, -14, 83, 29, -38, 43, 
  -32, -116, -1, 92, 21, 104, -68, 80, 42, -24, -104, -12, -12, -89, -90, 39, -38, 92, 1, 46, 
  -91, -64, 63, 58, 10, -17, -70, 86, -111, 64, 8, 14, -56, -29, -78, -75, 6, 96, -90, -30, 
  -82, 93, 62, -90, 43, -16, -41, -22, 36, 9, -66, -119, -96, 96, -93, -50, 12, 34, 57, 79, 
  -30, 25, 75, -65, 4, -5, -127, 0, 2, -3, 28, 55, 6, 28, -20, -56, 48, -21, -5, 19, 
  -51, -26, -30, -37, -20, -17, 22, -11, 35, -106, -36, -59, 102, -1, 27, -40, -5, -67, -73, -110, 
  -71, -60, 127, -32, 14, 66, 52, -36, 116, 6, -11, -107, -75, -56, 72, -102, -1, -69, -23, 58, 
  -7, 39, 100, -77, -35, -4, 7, -27, -32, 125, 45, 48, -20, -1, 9, 58, -47, -107, -35, -115, 
  -8, -44, -9, -1, 1, 77, -62, -30, -53, 46, 19, 58, 113, -72, -119, 11, 17, -79, -28, 19, 
  -1, 44, -15, 78, -1, -86, 16, -111, -46, -12, 1, -55, -35, 56, 1, 84, -1, 15, -23, -127, 
  120, 34, -33, -23, -69, 54, 12, 69, 39, 66, -63, -50, 6, 2, 96, 0, -31, 1, 71, 101, 
  29, -22, -44, 5, 13, -44, 53, 34, -51, 61, 58, 60, -69, 54, 24, -35, -1, 22, 101, -51, 
  7, -51, -10, 75, -13, -17, -80, -94, -36, 42, 35, -26, 13, -8, 4, -8, -54, -34, -57, 5, 
  50, -11, 12, -32, -58, -64, 49, -19, 27, -42, -3, -18, 32, -48, -127, -27, -20, 57, 3, -31, 
  -2, 3, -25, 81, -11, 91, -66, 38, 76, -58, -32, -39, -47, 7, 60, 55, -69, 48, -33, 15, 
  -27, -47, -41, -15, -127, 1, -31, -9, -19, 24, -41, 18, -55, 72, -35, 72, -67, -8, -27, 30, 
  -51, 26, -28, 36, -16, 8, 27, 43, -57, 31, -30, -35, 28, 37, 62, -17, -97, -33, 34, 49, 
  -27, 11, -29, -23, 51, 67, 8, 88, 64, -29, -8, 6, 18, 10, 43, -33, -42, 34, -23, 25, 
  80, 68, -4, 6, -127, 5, -97, 19, -22, -21, 60, -18, -67, 7, -18, 12, 26, -59, -71, -64, 
  42, 21, -2, -22, -23, 105, 11, -45, 9, 29, 0, -86, -51, 69, -44, 3, 31, 36, 43, 4, 
  42, -7, 20, 1, -38, -64, -12, 24, 42, 33, -61, -33, -124, -38, -51, 11, 38, -9, -37, 6, 
  45, 51, 17, -88, -75, 42, 21, 6, -5, -10, -36, 0, 41, 120, 20, 79, -14, 79, -43, 4, 
  -3, 57, 3, 47, -12, 32, 66, -3, 1, 40, 25, 15, 79, 3, -64, 71, 99, 29, -10, 27, 
  93, 1, 119, -4, 127, -41, -6, -26, 53, 29, -36, 29, 16, 45, -34, 51, 7, -34, -15, -57, 
  -1, 59, -44, -17, -37, -16, 51, 17, -2, -86, -49, -5, -16, 40, -16, 52, -28, -50, 6, 38, 
  -43, 9, 14, 18, -57, -48, 58, 10, 23, -9, -22, 29, -24, 42, 44, 69, 127, -9, 78, -82, 
  -9, -17, 61, 55, -2, -90, -87, 42, 68, -28, 66, -84, -15, -33, 23, 7, -37, 54, 94, 60, 
  -52, -23, 51, -81, 26, 6, -95, 86, -6, 115, 7, -86, 125, 127, 22, -2, 34, -42, -24, 67, 
  13, 1, 72, -33, -12, 71, -2, -5, 30, 53, -3, 96, 104, -82, 40, 5, -41, 7, 99, 5, 
  10, 81, -66, -25, 35, 11, 120, 64, -25, 69, 67, 46, 108, 32, 62, 44, 39, -32, -97, 2, 
  -5, 16, -50, 102, -44, -58, 96, -34, -58, -25, 50, 35, 65, -126, 46, 59, -28, 19, -22, 12, 
  70, 31, 23, -38, -62, 48, 24, -100, 61, -98, -37, -21, -38, -44, -11, 88, -103, -56, -74, 121, 
  23, -121, -70, 42, -127, -83, 39, 44, 11, -115, -30, -38, 17, 17, -61, 52, -17, -83, -2, -67, 
  -75, 41, 29, 2, -22, -52, -55, 30, 85, 45, -46, -110, -21, 38, -55, -91, 54, -24, -92, -51, 
  -27, 119, -71, -69, -51, 123, 48, 11, 16, 61, -77, 57, -127, -57, 118, 50, 28, 93, -70, 13, 
  -44, -60, 24, 39, 40, -104, -56, 21, -42, 33, -46, 5, 58, -48, -28, -19, -109, 55, 47, 87, 
  -74, 119, -46, 71, 46, -109, -2, -10, -40, -5, 20, 51, 1, -53, -47, 9, -27, -16, -7, -2, 
  -1, -43, -49, -53, -5, 40, 38, -10, -44, -26, -31, 69, 36, -52, 20, 16, -63, -34, 39, 26, 
  0, 127, 42, 76, -50, -19, -2, -65, 5, 81, -58, 47, 19, -5, -122, 8, -2, 34, 1, 49, 
  61, 60, -84, 33, -19, -28, -72, -79, -96, -2, -32, 4, 2, 43, -38, 11, -23, -52, 48, -61, 
  4, -35, -60, 58, 31, 58, -103, -39, -7, -37, 51, 53, 29, -10, -43, -6, 0, -63, 67, -13, 
  -28, 24, -21, 95, 18, -127, -38, -47, 37, 24, -126, -50, 11, -7, -6, -28, 52, 83, -13, -36, 
  -26, 66, -64, -22, 5, 90, -31, -6, 121, 27, -12, 33, 74, 22, 30, -13, 18, 12, 52, -13, 
  15, -5, -10, -42, 24, -53, 74, 35, 127, -30, -28, 71, -59, 16, -74, 42, 14, 122, -6, -56, 
  -46, -3, 100, -22, -53, 61, 29, -76, -51, 7, -68, -48, -16, -67, -25, -104, 38, -59, 111, 15, 
  -43, -51, -42, -77, 98, -116, 67, -95, 50, -95, -67, 88, -50, 67, 60, -12, 12, -51, -95, -8, 
  -22, 59, 14, 7, -1, 25, 20, -13, -20, 55, -6, -50, 3, -82, 36, 2, 79, 21, 46, -10, 
  -45, -35, -30, 14, -6, -55, 18, -3, -9, 23, -13, 29, 8, 71, 10, 1, 20, 19, -48, 23, 
  -9, 79, 26, -38, 6, -26, 127, -24, -4, -16, 35, -16, -11, -57, 49, -6, -1, 108, 36, 17, 
  2, -38, -1, 44, -18, 7, 5, 47, 67, -84, 24, -42, 3, -12, 95, -40, 44, 12, 26, -31, 
  90, -70, -5, -73, -11, -4, -44, 4, 7, -53, 65, 82, -22, -85, 15, 80, 34, 46, 99, -73, 
  -32, -42, 32, -24, -89, 82, 2, -32, -127, -10, -110, -95, -81, -58, 81, -29, 16, -4, -17, -58, 
  -85, -95, 64, 81, -66, 38, -64, 78, 18, -48, 54, -116, 2, -66, 108, 42, 125, 47, -79, 70, 
  38, 29, -62, 18, -2, -15, 20, -57, 32, 42, 64, -92, -45, 42, 83, -13, 5, 3, 66, -28, 
  -39, -60, -92, -30, 28, -5, -84, 40, 52, -81, 101, -70, 75, -13, -61, 18, 104, 46, -100, -77, 
  -1, 40, -75, -64, 32, -13, 36, 82, 63, 18, 105, -127, 45, -31, -83, -78, 86, -46, 24, -41, 
  17, -87, 59, -6, -34, -87, -31, -30, -28, -42, 13, 70, -17, -11, 56, -23, -53, 17, 127, -87, 
  9, 43, -78, 40, 59, -110, -34, 5, -7, -24, -28, -4, -34, -23, 56, 67, 33, -109, -42, -18, 
  -50, -37, -30, 28, -46, -72, 82, -48, 12, 8, 68, 0, -4, 47, 0, -36, 59, -16, -30, -34, 
  39, 16, -43, -44, 20, 61, 8, -18, -95, 6, 127, 18, -36, 1, 26, -2, -24, 0, 42, 29, 
  65, -93, -104, 65, 94, -35, -7, -8, 44, -87, 62, -40, 14, 43, -20, 71, -43, 17, 23, 10, 
  -92, -23, 14, 80, -33, -49, -37, -67, -109, 12, -16, -90, -64, -58, 51, -11, -27, 67, 54, -36, 
  -46, 2, -81, -31, -99, 9, 66, 36, -33, 103, -52, 38, 33, -8, -96, -5, 67, -26, 21, -95, 
  55, -69, 87, -18, 53, 43, 9, -34, 20, 101, 116, -3, -106, 76, -74, -26, 0, -26, -18, 5, 
  -20, 56, 73, -33, 9, 120, 47, -8, -78, -73, -22, 33, -35, 18, -65, 30, -69, 93, -40, 76, 
  28, 1, -127, -50, 4, -79, 95, 42, 28, 78, 24, -45, 0, 67, -1, -93, 9, 53, -63, -24, 
  50, -62, -24, -48, -11, 94, 74, -104, 127, 7, -27, 41, -96, 1, -3, 90, 90, -19, -44, -48, 
  38, 9, 23, -86, -11, 9, 0, 22, -23, -8, 11, -107, -30, -33, 34, 27, 62, 40, -70, 20, 
  52, -25, 63, -43, -20, 1, 85, -75, 53, 48, 52, 53, 41, 32, 11, -16, -97, 71, -44, -9, 
  29, -81, 1, 3, 80, -74, -1, 81, -31, 43, 127, -43, 97, -19, -6, -88, -54, 9, 22, 66, 
  37, -8, 33, -35, 25, -8, -46, 55, 51, -35, 45, -76, 11, 15, -35, 43, 34, -38, 38, 11, 
  15, 4, -36, -29, -88, -13, 11, -13, 26, 102, 51, 18, 1, -61, -66, -65, -42, 51, -90, 0, 
  1, -55, -70, 106, -127, 16, -12, -70, -63, -85, -23, 75, 37, 50, 3, 71, 13, -49, 44, 48, 
  9, -37, 35, 12, 21, 45, -39, -44, 32, -28, -79, -30, -85, -71, 20, 36, -6, -37, -32, -71, 
  -43, 8, -35, 11, -22, 39, 37, -100, 8, 38, -31, -25, -4, -23, -62, -29, -35, -22, -56, -47, 
  45, 4, -65, 127, 41, 49, 19, 26, 1, 37, -29, -44, 8, 13, 14, -18, -19, 25, -11, -49, 
  98, -51, -21, 5, 71, 0, 33, -95, -6, -50, 76, -72, 23, 53, -61, -94, -17, 49, -66, -44, 
  -3, 4, -7, -29, 44, -6, -121, 33, -3, -69, -38, -41, -90, -22, 30, 20, -62, 111, 60, 85, 
  64, 87, 78, -11, -47, -73, -62, -4, 75, 0, -18, 58, 25, 20, -21, 102, -36, -20, -59, -60, 
  58, 12, 62, 4, -71, -46, 2, 30, 13, 31, -33, -56, -11, -10, -10, -8, -21, -44, -97, 37, 
  21, -25, -66, -66, -11, -97, -41, -29, 78, -64, -56, 48, 37, 3, 1, 77, 29, -127, 1, -84, 
  80, -69, 19, -46, 79, 5, 8, -3, -37, 0, -5, 32, -21, 54, -62, -55, 13, -43, -9, -42, 
  -5, -8, -44, -9, -7, 19, 4, 16, -17, 89, 10, 14, -85, 16, 29, 51, 13, 65, 21, -74, 
  -28, 3, 3, 6, -71, 46, 67, 4, -15, 50, 15, -52, -56, 55, -56, 14, -55, 127, 57, -49, 
  -21, 48, -22, 77, -57, -89, 18, 29, 11, 42, 64, 22, -63, 13, 25, -89, 1, -10, 4, 72, 
  11, -20, -25, -50, 39, -92, -48, -19, 85, -1, -2, -68, -66, -25, -43, -14, 2, -113, -18, 21, 
  81, -50, 2, 39, -105, -49, -28, 42, 90, -8, -29, -40, 33, -15, -53, -3, 40, 51, -29, -67, 
  83, 127, 36, -21, -21, -72, -79, -44, -6, 83, 52, 14, 46, -45, 14, 111, -14, -15, -14, -7, 
  -8, 48, -48, -50, 33, -45, -25, -37, 38, -15, 76, -17, -30, -24, -8, -126, 9, -40, 46, -47, 
  -102, 0, 9, 3, -40, 80, -46, -49, -41, 9, 127, -85, 21, 8, -30, 34, -44, -56, -25, 38, 
  41, -56, -44, 3, 7, -7, 1, 60, 7, -46, 96, 17, 10, 57, 14, -44, -12, 71, -29, 47, 
  41, -90, 23, -15, 83, -100, 80, 6, 82, 7, 67, -29, 62, -69, 20, -1, 41, -18, 74, 78, 
  67, 31, 5, 2, 43, -26, -66, 27, 60, -37, -33, 14, 127, -96, -14, -40, 11, -13, 14, -21, 
  15, 19, -4, -75, -26, 15, 21, 24, -46, 53, -37, -4, 27, -35, -6, 8, -32, -17, -61, -6, 
  -3, 25, 85, 15, 0, -49, 39, 38, -112, -36, -23, -55, 17, 71, -53, -8, 13, -27, 44, -48, 
  48, 36, 40, -1, 9, 74, 11, -21, -73, 5, 83, -8, -45, -17, -25, 44, -13, -3, -18, -82, 
  -31, -51, -56, -9, -55, -2, -13, 50, 22, -50, -18, -55, -106, 59, 33, -21, 29, -28, 47, 14, 
  -35, 8, -32, 58, -127, 80, -66, 19, 13, 46, -68, 70, 57, -20, 46, 41, -15, 1, 35, 17, 
  -75, 29, 46, -25, 61, -12, -40, -23, 10, -20, -61, 7, 6, -39, -113, 8, 31, 34, 59, -19, 
  -73, -70, -19, -58, 31, -31, -42, -44, -98, 2, -60, -58, 101, 56, 15, 7, 49, 15, 42, 3, 
  -127, -15, -89, 43, -18, -1, 31, 5, 68, 16, 33, -27, 91, 41, -26, -67, -42, -48, -28, -50, 
  -70, -72, 20, 44, -33, -17, -96, -67, -62, -41, -26, 70, 4, -102, -58, -87, -104, 23, 127, 34, 
  -68, 12, -41, 47, -55, -68, 37, 41, -58, -66, 75, 68, -100, -1, 42, 25, -87, 19, -54, 9, 
  -13, -8, 50, 38, 18, -19, 125, -6, -50, -78, -65, 39, 57, 75, -27, -122, 76, -28, 72, -65, 
  -62, 74, 43, 4, 41, 37, -127, -72, -74, 3, 35, 33, -101, 2, -46, -27, -18, 28, 10, -69, 
  -77, -17, 2, -14, -38, -53, 42, -60, 2, -1, 12, -51, -87, 91, 81, 20, 49, -2, 2, -71, 
  12, 50, -58, -1, -44, -10, 64, 65, 11, 3, -4, 52, -40, -33, 4, -87, -18, -3, -18, 5, 
  45, -78, 20, -17, -45, -21, -16, -54, -25, -41, -38, -36, 16, 14, 10, 24, 39, -32, -13, 26, 
  53, 53, 44, -52, -25, -4, 12, -17, -65, -16, 2, -4, -16, 0, -46, 19, 73, -3, 31, 2, 
  33, 47, 20, -33, -12, 22, 16, -15, -41, -44, -46, -55, -34, -50, 64, -70, -3, 0, 0, -60, 
  127, 23, -21, -63, 65, -61, -103, -67, -18, 11, -40, -1, -57, 42, 26, 49, -51, -63, -22, 55, 
  78, 13, -53, 108, 102, -59, -24, 11, -15, 2, -36, 55, -53, 16, -40, -38, -81, -8, -2, -3, 
  -67, 97, -19, 17, 88, -64, 47, -85, -111, 127, 27, -113, 9, 2, -50, 2, 82, -90, -17, 45, 
  -33, -79, -15, -20, 73, 56, 51, -100, 6, 38, 87, 9, -15, -109, 91, 15, -86, 42, 91, -23, 
  -48, -6, -15, -43, -35, -111, 61, -64, 0, -82, 93, -73, 52, -36, 49, -21, -38, 71, 63, 28, 
  -35, 50, 59, -60, -34, -46, 7, -43, -70, -35, -127, 61, 59, 94, -32, -75, -21, 12, 105, 17, 
  71, -6, 118, 58, 40, -24, 56, -27, -69, 12, -26, 58, -1, -6, 102, -27, 8, 73, 2, 22, 
  -96, 67, -2, -11, 26, -32, 14, 34, -6, -3, -65, 30, 94, 12, 4, -63, -64, 40, 43, 86, 
  -7, -35, 18, 92, -66, 17, 0, 17, 23, 40, 52, -33, -17, 127, -21, -66, -7, -53, -92, -48, 
  59, 7, 9, 65, 13, -74, 14, -18, -34, 36, 90, -22, -78, -63, 19, 29, -12, -70, 74, -64, 
  13, -54, 87, 38, 53, -39, -40, -1, 52, 36, 9, -36, -57, 20, 5, 18, 1, 54, -17, -8, 
  -41, -85, 47, 13, 19, -10, -29, 18, 10, -105, 86, 106, 47, -1, 85, -45, -100, 11, 30, 25, 
  2, 19, -57, -61, -99, -72, -80, -26, -92, 53, 52, 42, -6, -127, 0, 120, 28, 57, -22, -60, 
  -49, -35, -61, 22, 15, -24, -18, 60, -8, 97, -54, -50, 2, -2, 15, 0, -91, 50, -77, -4, 
  -39, -54, -121, -53, -10, -1, -73, -84, 83, -117, 64, 93, -32, 73, -27, 54, 53, -4, -64, -16, 
  -17, -64, 21, 18, 39, 9, -80, 23, -78, 103, 32, 6, 50, 6, -40, 127, 92, -49, -97, 42, 
  58, 54, 9, 46, 26, -102, -30, -7, 51, -80, 12, 51, -104, 56, -26, 62, -25, -25, 107, 7, 
  -60, -89, 40, 44, 38, 16, -8, 33, -23, 67, 91, 38, -18, 66, 32, 28, -63, -96, 73, 20, 
  -28, -58, -46, -11, -13, -21, 69, -120, -18, 7, 43, 21, -59, -55, -15, 10, -71, 24, -62, -72, 
  -70, -28, -65, 97, -7, 12, -67, -127, 42, 11, 83, -48, -48, 28, 44, -33, 31, -36, -40, 110, 
  -60, 2, -100, 46, -38, 15, -15, 1, 12, 48, 10, 13, 32, -47, -52, 10, -46, -67, 4, 127, 
  35, -26, 20, -72, -23, -56, -87, 7, -104, -9, -26, 60, -18, 54, -19, 11, -37, 37, -32, -7, 
  22, -78, 50, -118, 48, -69, -10, -35, -30, 93, -104, 16, -30, -56, -127, -124, 71, -123, 34, 3, 
  69, -38, 3, -3, 25, -31, -29, 75, -20, -73, -4, 61, -2, 71, 33, 43, 33, -27, 76, -21, 
  -16, 38, 1, -21, -58, 3, 52, 10, -3, -37, -14, -34, 34, -12, -77, 71, 30, -35, 58, 72, 
  30, 25, -12, -27, -17, -11, -20, 57, -68, 87, -13, -20, -58, -77, 36, -17, -38, -58, 39, -7, 
  72, 58, -70, -21, 37, -3, 68, -62, 127, -18, 24, 43, -7, 28, -2, 25, -18, 49, 0, 8, 
  -29, 13, 13, 18, 7, -37, -7, -70, -1, -9, -74, -43, -80, 2, 30, -18, -3, 89, 29, 9, 
  24, -10, -39, 6, 7, 60, 28, -57, 34, 46, 45, -14, 45, 18, 31, -29, 45, 40, 32, 93, 
  -48, 41, 56, 69, 19, 11, 19, 100, 58, -9, -6, 40, -102, 8, 55, -29, 13, -41, -82, 39, 
  17, 27, 43, -106, -50, -20, -19, 24, -33, -71, -15, 1, -38, -9, -23, -84, 47, -56, 11, -31, 
  -58, 26, -43, -64, 57, 43, 55, -62, 18, 4, -54, -19, 29, -40, -36, 17, 2, 17, -75, -33, 
  8, -127, 28, -73, -100, 8, 16, 109, 24, 104, -25, -6, -27, -56, 51, 59, 117, 39, -69, -104, 
  14, -62, 20, 80, -61, -51, -29, -25, 18, -72, 29, 46, -70, 25, -41, -7, -28, -1, 11, -96, 
  40, 22, -27, -83, -28, 10, -8, -65, -46, 28, -20, 25, 49, -53, 24, 11, -28, -61, 114, -127, 
  32, 22, -13, -24, 64, -47, -4, 0, -79, 18, -3, -45, 51, -23, -65, -66, 14, -39, 41, 5, 
  39, -34, 70, 54, -78, 34, 25, 37, -70, 28, -72, -39, 8, 127, 18, -105, -43, -51, -9, -79, 
  -14, -62, -24, 63, -65, -91, 82, -34, 29, -20, 30, 14, -4, 51, -18, 111, 17, -96, -21, 42, 
  85, 46, 28, -98, -10, -9, -122, -42, -74, 23, -28, -25, -22, -39, 49, 31, 56, 22, -127, 43, 
  35, 42, -43, -68, -51, -40, 8, 75, -71, 4, -44, 30, -27, -25, 40, -73, -63, 103, 22, 26, 
  -44, -27, 68, -17, 62, -62, -30, -43, -42, 38, -66, -88, -40, -17, -67, 36, -70, -22, -56, 37, 
  16, -99, 22, -65, -4, 27, -68, 89, -90, -30, 4, 59, 47, 83, -20, 89
};

#if HAS_BIAS
alignas(16) static NS_PUT_IN_TCM int32_t conv_6_bias[] = {
  3639, -3131, -1337, 2763, 1672, 1445, 1668, 1549, -435, 8597, 5303, -1506, -1637, 1279, -2588, 2357, 542, 6815, 1865, -338, 
  2617, 2286, 2156, -9234, -2142, -9524, 7769, 2814, 2861, -1713, 1179, -2731, 5008, -673, 1334, 2438, -2285, -3961, -3400, 6974, 
  -2340, 3669, -997, 2847, 3170, -3044, 495, 1406, 4721, 4375, 1136, 3746, -1267, -3157, 708, -749, 3354, 4271, 1923, -5101, 
  5839, 2871, 206, 1832
};
#else
static NS_PUT_IN_TCM int32_t *conv_6_bias = NULL;
#endif


alignas(16) static NS_PUT_IN_TCM int8_t conv_6_scratch_buffer[SCRATCH_BUFFER_SIZE];
alignas(16) static NS_PUT_IN_TCM int8_t conv_6_weight_sum_buffer[WEIGHT_SUM_BUFFER_SIZE];

static cmsis_nn_context conv_6_ctx = {
    .buf = conv_6_scratch_buffer,
    .size = sizeof(conv_6_scratch_buffer),
};

static cmsis_nn_context conv_6_weight_sum_ctx = {
    .buf = conv_6_weight_sum_buffer,
    .size = sizeof(conv_6_weight_sum_buffer),
};

const cmsis_nn_per_channel_quant_params conv_6_quant_params = {
    .multiplier = (int32_t*)conv_6_multiplier,
    .shift = (int32_t*)conv_6_shift,
};


const cmsis_nn_conv_params conv_6_conv_params = {
    .input_offset = -conv_6_input_zero_point,
    .output_offset = conv_6_output_zero_point,
    .stride.w = 1,
    .stride.h = 1,
    .padding.w = 0,
    .padding.h = 0,
    .dilation.w = 1,
    .dilation.h = 1,
    .activation.min = -128,
    .activation.max = 127,
};

int32_t aot_conv_6_init(void)
{
    return arm_convolve_weight_sum(
        (int32_t *)conv_6_weight_sum_buffer,
        conv_6_weights,
        &conv_6_input_dims,
        &conv_6_filter_dims,
        &conv_6_output_dims,
        conv_6_conv_params.input_offset,
        conv_6_bias
    );

}

int32_t aot_conv_6_run(const int8_t* __restrict input, int8_t* __restrict output)
{

    return arm_convolve_wrapper_s8(
        &conv_6_ctx,
        &conv_6_weight_sum_ctx,
        &conv_6_conv_params,
        &conv_6_quant_params,
        &conv_6_input_dims,
        input,
        &conv_6_filter_dims,
        conv_6_weights,
        &conv_6_bias_dims,
        conv_6_bias,
        &conv_6_output_dims,
        output
    );

}
